digraph Tree {
node [shape=box, style="filled, rounded", color="black", fontname="helvetica"] ;
edge [fontname="helvetica"] ;
0 [label=<Bwd Packet Length Std &le; 1496.833<br/>gini = 0.271<br/>samples = 1668530<br/>value = [1402023, 252661, 13846]<br/>class = DoS>, fillcolor="#ea995e"] ;
1 [label=<Packet Length Mean &le; 5.882<br/>gini = 0.131<br/>samples = 1505323<br/>value = [1399952, 91536, 13835]<br/>class = DoS>, fillcolor="#e78a48"] ;
0 -> 1 [labeldistance=2.5, labelangle=45, headlabel="True"] ;
2 [label=<Destination Port &le; 84.0<br/>gini = 0.399<br/>samples = 325628<br/>value = [237633, 85018, 2977]<br/>class = DoS>, fillcolor="#efaf81"] ;
1 -> 2 ;
3 [label=<Flow IAT Mean &le; 7024.25<br/>gini = 0.503<br/>samples = 146158<br/>value = [58163, 85018, 2977]<br/>class = Scan>, fillcolor="#c3f7d9"] ;
2 -> 3 ;
4 [label=<Fwd Header Length.1 &le; 52.0<br/>gini = 0.294<br/>samples = 90463<br/>value = [12636, 74870, 2957]<br/>class = Scan>, fillcolor="#61ea9a"] ;
3 -> 4 ;
5 [label=<Packet Length Mean &le; 3.55<br/>gini = 0.596<br/>samples = 17610<br/>value = [9437, 5291, 2882]<br/>class = DoS>, fillcolor="#f6d5bc"] ;
4 -> 5 ;
6 [label=<Init_Win_bytes_backward &le; 246.0<br/>gini = 0.36<br/>samples = 12327<br/>value = [9435, 10, 2882]<br/>class = DoS>, fillcolor="#eda876"] ;
5 -> 6 ;
7 [label=<Fwd Packet Length Min &le; 3.0<br/>gini = 0.003<br/>samples = 9128<br/>value = [9116, 6, 6]<br/>class = DoS>, fillcolor="#e58139"] ;
6 -> 7 ;
8 [label=<Bwd Packets/s &le; 11906.449<br/>gini = 0.002<br/>samples = 9125<br/>value = [9116, 3, 6]<br/>class = DoS>, fillcolor="#e58139"] ;
7 -> 8 ;
9 [label=<gini = 0.0<br/>samples = 8123<br/>value = [8123, 0, 0]<br/>class = DoS>, fillcolor="#e58139"] ;
8 -> 9 ;
10 [label=<Flow IAT Mean &le; 79.5<br/>gini = 0.018<br/>samples = 1002<br/>value = [993, 3, 6]<br/>class = DoS>, fillcolor="#e5823b"] ;
8 -> 10 ;
11 [label=<Flow IAT Mean &le; 73.5<br/>gini = 0.014<br/>samples = 999<br/>value = [992, 3, 4]<br/>class = DoS>, fillcolor="#e5823a"] ;
10 -> 11 ;
12 [label=<Flow IAT Min &le; 46.5<br/>gini = 0.01<br/>samples = 993<br/>value = [988, 1, 4]<br/>class = DoS>, fillcolor="#e5823a"] ;
11 -> 12 ;
13 [label=<Flow IAT Min &le; 19.5<br/>gini = 0.004<br/>samples = 960<br/>value = [958, 0, 2]<br/>class = DoS>, fillcolor="#e58139"] ;
12 -> 13 ;
14 [label=<gini = 0.0<br/>samples = 810<br/>value = [810, 0, 0]<br/>class = DoS>, fillcolor="#e58139"] ;
13 -> 14 ;
15 [label=<Init_Win_bytes_forward &le; 233.0<br/>gini = 0.026<br/>samples = 150<br/>value = [148, 0, 2]<br/>class = DoS>, fillcolor="#e5833c"] ;
13 -> 15 ;
16 [label=<Bwd IAT Mean &le; 23.5<br/>gini = 0.298<br/>samples = 11<br/>value = [9, 0, 2]<br/>class = DoS>, fillcolor="#eb9d65"] ;
15 -> 16 ;
17 [label=<Flow Packets/s &le; 66315.789<br/>gini = 0.444<br/>samples = 3<br/>value = [1, 0, 2]<br/>class = Benign>, fillcolor="#c09cf2"] ;
16 -> 17 ;
18 [label=<gini = 0.0<br/>samples = 1<br/>value = [0, 0, 1]<br/>class = Benign>, fillcolor="#8139e5"] ;
17 -> 18 ;
19 [label=<Flow IAT Mean &le; 22.5<br/>gini = 0.5<br/>samples = 2<br/>value = [1, 0, 1]<br/>class = DoS>, fillcolor="#ffffff"] ;
17 -> 19 ;
20 [label=<gini = 0.0<br/>samples = 1<br/>value = [0, 0, 1]<br/>class = Benign>, fillcolor="#8139e5"] ;
19 -> 20 ;
21 [label=<gini = 0.0<br/>samples = 1<br/>value = [1, 0, 0]<br/>class = DoS>, fillcolor="#e58139"] ;
19 -> 21 ;
22 [label=<gini = 0.0<br/>samples = 8<br/>value = [8, 0, 0]<br/>class = DoS>, fillcolor="#e58139"] ;
16 -> 22 ;
23 [label=<gini = 0.0<br/>samples = 139<br/>value = [139, 0, 0]<br/>class = DoS>, fillcolor="#e58139"] ;
15 -> 23 ;
24 [label=<Flow Duration &le; 47.5<br/>gini = 0.169<br/>samples = 33<br/>value = [30, 1, 2]<br/>class = DoS>, fillcolor="#e88d4c"] ;
12 -> 24 ;
25 [label=<gini = 0.0<br/>samples = 1<br/>value = [0, 0, 1]<br/>class = Benign>, fillcolor="#8139e5"] ;
24 -> 25 ;
26 [label=<Flow Duration &le; 48.5<br/>gini = 0.119<br/>samples = 32<br/>value = [30, 1, 1]<br/>class = DoS>, fillcolor="#e78946"] ;
24 -> 26 ;
27 [label=<URG Flag Count &le; 0.5<br/>gini = 0.5<br/>samples = 2<br/>value = [1, 1, 0]<br/>class = DoS>, fillcolor="#ffffff"] ;
26 -> 27 ;
28 [label=<gini = 0.0<br/>samples = 1<br/>value = [1, 0, 0]<br/>class = DoS>, fillcolor="#e58139"] ;
27 -> 28 ;
29 [label=<gini = 0.0<br/>samples = 1<br/>value = [0, 1, 0]<br/>class = Scan>, fillcolor="#39e581"] ;
27 -> 29 ;
30 [label=<Flow IAT Mean &le; 67.5<br/>gini = 0.064<br/>samples = 30<br/>value = [29, 0, 1]<br/>class = DoS>, fillcolor="#e68540"] ;
26 -> 30 ;
31 [label=<gini = 0.0<br/>samples = 24<br/>value = [24, 0, 0]<br/>class = DoS>, fillcolor="#e58139"] ;
30 -> 31 ;
32 [label=<Flow IAT Min &le; 69.0<br/>gini = 0.278<br/>samples = 6<br/>value = [5, 0, 1]<br/>class = DoS>, fillcolor="#ea9a61"] ;
30 -> 32 ;
33 [label=<gini = 0.0<br/>samples = 1<br/>value = [0, 0, 1]<br/>class = Benign>, fillcolor="#8139e5"] ;
32 -> 33 ;
34 [label=<gini = 0.0<br/>samples = 5<br/>value = [5, 0, 0]<br/>class = DoS>, fillcolor="#e58139"] ;
32 -> 34 ;
35 [label=<Init_Win_bytes_forward &le; 298.0<br/>gini = 0.444<br/>samples = 6<br/>value = [4, 2, 0]<br/>class = DoS>, fillcolor="#f2c09c"] ;
11 -> 35 ;
36 [label=<gini = 0.0<br/>samples = 4<br/>value = [4, 0, 0]<br/>class = DoS>, fillcolor="#e58139"] ;
35 -> 36 ;
37 [label=<gini = 0.0<br/>samples = 2<br/>value = [0, 2, 0]<br/>class = Scan>, fillcolor="#39e581"] ;
35 -> 37 ;
38 [label=<Init_Win_bytes_backward &le; 235.0<br/>gini = 0.444<br/>samples = 3<br/>value = [1, 0, 2]<br/>class = Benign>, fillcolor="#c09cf2"] ;
10 -> 38 ;
39 [label=<gini = 0.0<br/>samples = 2<br/>value = [0, 0, 2]<br/>class = Benign>, fillcolor="#8139e5"] ;
38 -> 39 ;
40 [label=<gini = 0.0<br/>samples = 1<br/>value = [1, 0, 0]<br/>class = DoS>, fillcolor="#e58139"] ;
38 -> 40 ;
41 [label=<gini = 0.0<br/>samples = 3<br/>value = [0, 3, 0]<br/>class = Scan>, fillcolor="#39e581"] ;
7 -> 41 ;
42 [label=<Destination Port &le; 37.5<br/>gini = 0.182<br/>samples = 3199<br/>value = [319, 4, 2876]<br/>class = Benign>, fillcolor="#8f4fe8"] ;
6 -> 42 ;
43 [label=<gini = 0.0<br/>samples = 2876<br/>value = [0, 0, 2876]<br/>class = Benign>, fillcolor="#8139e5"] ;
42 -> 43 ;
44 [label=<URG Flag Count &le; 0.5<br/>gini = 0.024<br/>samples = 323<br/>value = [319, 4, 0]<br/>class = DoS>, fillcolor="#e5833b"] ;
42 -> 44 ;
45 [label=<gini = 0.0<br/>samples = 316<br/>value = [316, 0, 0]<br/>class = DoS>, fillcolor="#e58139"] ;
44 -> 45 ;
46 [label=<Init_Win_bytes_backward &le; 306.0<br/>gini = 0.49<br/>samples = 7<br/>value = [3, 4, 0]<br/>class = Scan>, fillcolor="#cef8e0"] ;
44 -> 46 ;
47 [label=<gini = 0.0<br/>samples = 4<br/>value = [0, 4, 0]<br/>class = Scan>, fillcolor="#39e581"] ;
46 -> 47 ;
48 [label=<gini = 0.0<br/>samples = 3<br/>value = [3, 0, 0]<br/>class = DoS>, fillcolor="#e58139"] ;
46 -> 48 ;
49 [label=<Fwd Header Length.1 &le; 26.0<br/>gini = 0.001<br/>samples = 5283<br/>value = [2, 5281, 0]<br/>class = Scan>, fillcolor="#39e581"] ;
5 -> 49 ;
50 [label=<gini = 0.0<br/>samples = 2<br/>value = [2, 0, 0]<br/>class = DoS>, fillcolor="#e58139"] ;
49 -> 50 ;
51 [label=<gini = 0.0<br/>samples = 5281<br/>value = [0, 5281, 0]<br/>class = Scan>, fillcolor="#39e581"] ;
49 -> 51 ;
52 [label=<Flow IAT Min &le; 1090.5<br/>gini = 0.086<br/>samples = 72853<br/>value = [3199, 69579, 75]<br/>class = Scan>, fillcolor="#42e687"] ;
4 -> 52 ;
53 [label=<Init_Win_bytes_forward &le; 297.0<br/>gini = 0.064<br/>samples = 71720<br/>value = [2312, 69333, 75]<br/>class = Scan>, fillcolor="#40e685"] ;
52 -> 53 ;
54 [label=<Init_Win_bytes_forward &le; 250.5<br/>gini = 0.05<br/>samples = 71115<br/>value = [1774, 69285, 56]<br/>class = Scan>, fillcolor="#3ee684"] ;
53 -> 54 ;
55 [label=<Init_Win_bytes_forward &le; 228.0<br/>gini = 0.457<br/>samples = 3391<br/>value = [1118, 2234, 39]<br/>class = Scan>, fillcolor="#9ef2c1"] ;
54 -> 55 ;
56 [label=<Fwd IAT Max &le; 140.5<br/>gini = 0.009<br/>samples = 2243<br/>value = [10, 2233, 0]<br/>class = Scan>, fillcolor="#3ae582"] ;
55 -> 56 ;
57 [label=<gini = 0.0<br/>samples = 8<br/>value = [8, 0, 0]<br/>class = DoS>, fillcolor="#e58139"] ;
56 -> 57 ;
58 [label=<Init_Win_bytes_backward &le; 289.0<br/>gini = 0.002<br/>samples = 2235<br/>value = [2, 2233, 0]<br/>class = Scan>, fillcolor="#39e581"] ;
56 -> 58 ;
59 [label=<Init_Win_bytes_backward &le; 133.0<br/>gini = 0.001<br/>samples = 2234<br/>value = [1, 2233, 0]<br/>class = Scan>, fillcolor="#39e581"] ;
58 -> 59 ;
60 [label=<Init_Win_bytes_forward &le; 113.5<br/>gini = 0.08<br/>samples = 24<br/>value = [1, 23, 0]<br/>class = Scan>, fillcolor="#42e686"] ;
59 -> 60 ;
61 [label=<gini = 0.0<br/>samples = 1<br/>value = [1, 0, 0]<br/>class = DoS>, fillcolor="#e58139"] ;
60 -> 61 ;
62 [label=<gini = 0.0<br/>samples = 23<br/>value = [0, 23, 0]<br/>class = Scan>, fillcolor="#39e581"] ;
60 -> 62 ;
63 [label=<gini = 0.0<br/>samples = 2210<br/>value = [0, 2210, 0]<br/>class = Scan>, fillcolor="#39e581"] ;
59 -> 63 ;
64 [label=<gini = 0.0<br/>samples = 1<br/>value = [1, 0, 0]<br/>class = DoS>, fillcolor="#e58139"] ;
58 -> 64 ;
65 [label=<Subflow Fwd Bytes &le; 4.0<br/>gini = 0.067<br/>samples = 1148<br/>value = [1108, 1, 39]<br/>class = DoS>, fillcolor="#e68640"] ;
55 -> 65 ;
66 [label=<gini = 0.0<br/>samples = 1108<br/>value = [1108, 0, 0]<br/>class = DoS>, fillcolor="#e58139"] ;
65 -> 66 ;
67 [label=<Fwd Packet Length Mean &le; 5.5<br/>gini = 0.049<br/>samples = 40<br/>value = [0, 1, 39]<br/>class = Benign>, fillcolor="#843ee6"] ;
65 -> 67 ;
68 [label=<gini = 0.0<br/>samples = 1<br/>value = [0, 1, 0]<br/>class = Scan>, fillcolor="#39e581"] ;
67 -> 68 ;
69 [label=<gini = 0.0<br/>samples = 39<br/>value = [0, 0, 39]<br/>class = Benign>, fillcolor="#8139e5"] ;
67 -> 69 ;
70 [label=<Destination Port &le; 51.0<br/>gini = 0.02<br/>samples = 67724<br/>value = [656, 67051, 17]<br/>class = Scan>, fillcolor="#3be582"] ;
54 -> 70 ;
71 [label=<Fwd IAT Min &le; 214.5<br/>gini = 0.361<br/>samples = 72<br/>value = [55, 0, 17]<br/>class = DoS>, fillcolor="#eda876"] ;
70 -> 71 ;
72 [label=<Fwd Header Length.1 &le; 104.0<br/>gini = 0.098<br/>samples = 58<br/>value = [55, 0, 3]<br/>class = DoS>, fillcolor="#e68844"] ;
71 -> 72 ;
73 [label=<Init_Win_bytes_backward &le; 245.0<br/>gini = 0.035<br/>samples = 56<br/>value = [55, 0, 1]<br/>class = DoS>, fillcolor="#e5833d"] ;
72 -> 73 ;
74 [label=<gini = 0.0<br/>samples = 55<br/>value = [55, 0, 0]<br/>class = DoS>, fillcolor="#e58139"] ;
73 -> 74 ;
75 [label=<gini = 0.0<br/>samples = 1<br/>value = [0, 0, 1]<br/>class = Benign>, fillcolor="#8139e5"] ;
73 -> 75 ;
76 [label=<gini = 0.0<br/>samples = 2<br/>value = [0, 0, 2]<br/>class = Benign>, fillcolor="#8139e5"] ;
72 -> 76 ;
77 [label=<gini = 0.0<br/>samples = 14<br/>value = [0, 0, 14]<br/>class = Benign>, fillcolor="#8139e5"] ;
71 -> 77 ;
78 [label=<Flow IAT Min &le; 49.5<br/>gini = 0.018<br/>samples = 67652<br/>value = [601, 67051, 0]<br/>class = Scan>, fillcolor="#3be582"] ;
70 -> 78 ;
79 [label=<Fwd Header Length.1 &le; 62.0<br/>gini = 0.001<br/>samples = 54053<br/>value = [26, 54027, 0]<br/>class = Scan>, fillcolor="#39e581"] ;
78 -> 79 ;
80 [label=<gini = 0.0<br/>samples = 9<br/>value = [9, 0, 0]<br/>class = DoS>, fillcolor="#e58139"] ;
79 -> 80 ;
81 [label=<Avg Fwd Segment Size &le; 3.964<br/>gini = 0.001<br/>samples = 54044<br/>value = [17, 54027, 0]<br/>class = Scan>, fillcolor="#39e581"] ;
79 -> 81 ;
82 [label=<Flow IAT Mean &le; 6980.75<br/>gini = 0.001<br/>samples = 54043<br/>value = [16, 54027, 0]<br/>class = Scan>, fillcolor="#39e581"] ;
81 -> 82 ;
83 [label=<Flow IAT Mean &le; 6175.3<br/>gini = 0.001<br/>samples = 54042<br/>value = [15, 54027, 0]<br/>class = Scan>, fillcolor="#39e581"] ;
82 -> 83 ;
84 [label=<Flow IAT Min &le; 11.5<br/>gini = 0.001<br/>samples = 54037<br/>value = [14, 54023, 0]<br/>class = Scan>, fillcolor="#39e581"] ;
83 -> 84 ;
85 [label=<Fwd Packets/s &le; 731.262<br/>gini = 0.0<br/>samples = 52315<br/>value = [7, 52308, 0]<br/>class = Scan>, fillcolor="#39e581"] ;
84 -> 85 ;
86 [label=<Fwd Packets/s &le; 730.772<br/>gini = 0.006<br/>samples = 1249<br/>value = [4, 1245, 0]<br/>class = Scan>, fillcolor="#3ae581"] ;
85 -> 86 ;
87 [label=<Init_Win_bytes_forward &le; 257.5<br/>gini = 0.005<br/>samples = 1248<br/>value = [3, 1245, 0]<br/>class = Scan>, fillcolor="#39e581"] ;
86 -> 87 ;
88 [label=<gini = 0.0<br/>samples = 737<br/>value = [0, 737, 0]<br/>class = Scan>, fillcolor="#39e581"] ;
87 -> 88 ;
89 [label=<Init_Win_bytes_forward &le; 269.0<br/>gini = 0.012<br/>samples = 511<br/>value = [3, 508, 0]<br/>class = Scan>, fillcolor="#3ae582"] ;
87 -> 89 ;
90 [label=<gini = 0.0<br/>samples = 1<br/>value = [1, 0, 0]<br/>class = DoS>, fillcolor="#e58139"] ;
89 -> 90 ;
91 [label=<Fwd Header Length.1 &le; 90.0<br/>gini = 0.008<br/>samples = 510<br/>value = [2, 508, 0]<br/>class = Scan>, fillcolor="#3ae581"] ;
89 -> 91 ;
92 [label=<Init_Win_bytes_forward &le; 285.0<br/>gini = 0.011<br/>samples = 357<br/>value = [2, 355, 0]<br/>class = Scan>, fillcolor="#3ae582"] ;
91 -> 92 ;
93 [label=<gini = 0.011<br/>samples = 353<br/>value = [2, 351, 0]<br/>class = Scan>, fillcolor="#3ae582"] ;
92 -> 93 ;
94 [label=<gini = 0.0<br/>samples = 4<br/>value = [0, 4, 0]<br/>class = Scan>, fillcolor="#39e581"] ;
92 -> 94 ;
95 [label=<gini = 0.0<br/>samples = 153<br/>value = [0, 153, 0]<br/>class = Scan>, fillcolor="#39e581"] ;
91 -> 95 ;
96 [label=<gini = 0.0<br/>samples = 1<br/>value = [1, 0, 0]<br/>class = DoS>, fillcolor="#e58139"] ;
86 -> 96 ;
97 [label=<Fwd IAT Min &le; 1.5<br/>gini = 0.0<br/>samples = 51066<br/>value = [3, 51063, 0]<br/>class = Scan>, fillcolor="#39e581"] ;
85 -> 97 ;
98 [label=<Total Fwd Packets &le; 3.5<br/>gini = 0.0<br/>samples = 14583<br/>value = [2, 14581, 0]<br/>class = Scan>, fillcolor="#39e581"] ;
97 -> 98 ;
99 [label=<Flow IAT Std &le; 57.205<br/>gini = 0.0<br/>samples = 10279<br/>value = [2, 10277, 0]<br/>class = Scan>, fillcolor="#39e581"] ;
98 -> 99 ;
100 [label=<Init_Win_bytes_forward &le; 262.5<br/>gini = 0.0<br/>samples = 10207<br/>value = [1, 10206, 0]<br/>class = Scan>, fillcolor="#39e581"] ;
99 -> 100 ;
101 [label=<gini = 0.0<br/>samples = 6371<br/>value = [0, 6371, 0]<br/>class = Scan>, fillcolor="#39e581"] ;
100 -> 101 ;
102 [label=<Total Fwd Packets &le; 2.5<br/>gini = 0.001<br/>samples = 3836<br/>value = [1, 3835, 0]<br/>class = Scan>, fillcolor="#39e581"] ;
100 -> 102 ;
103 [label=<Init_Win_bytes_forward &le; 285.0<br/>gini = 0.001<br/>samples = 3384<br/>value = [1, 3383, 0]<br/>class = Scan>, fillcolor="#39e581"] ;
102 -> 103 ;
104 [label=<Subflow Bwd Packets &le; 0.5<br/>gini = 0.001<br/>samples = 3365<br/>value = [1, 3364, 0]<br/>class = Scan>, fillcolor="#39e581"] ;
103 -> 104 ;
105 [label=<gini = 0.001<br/>samples = 3361<br/>value = [1, 3360, 0]<br/>class = Scan>, fillcolor="#39e581"] ;
104 -> 105 ;
106 [label=<gini = 0.0<br/>samples = 4<br/>value = [0, 4, 0]<br/>class = Scan>, fillcolor="#39e581"] ;
104 -> 106 ;
107 [label=<gini = 0.0<br/>samples = 19<br/>value = [0, 19, 0]<br/>class = Scan>, fillcolor="#39e581"] ;
103 -> 107 ;
108 [label=<gini = 0.0<br/>samples = 452<br/>value = [0, 452, 0]<br/>class = Scan>, fillcolor="#39e581"] ;
102 -> 108 ;
109 [label=<Fwd IAT Std &le; 85.56<br/>gini = 0.027<br/>samples = 72<br/>value = [1, 71, 0]<br/>class = Scan>, fillcolor="#3ce583"] ;
99 -> 109 ;
110 [label=<gini = 0.0<br/>samples = 1<br/>value = [1, 0, 0]<br/>class = DoS>, fillcolor="#e58139"] ;
109 -> 110 ;
111 [label=<gini = 0.0<br/>samples = 71<br/>value = [0, 71, 0]<br/>class = Scan>, fillcolor="#39e581"] ;
109 -> 111 ;
112 [label=<gini = 0.0<br/>samples = 4304<br/>value = [0, 4304, 0]<br/>class = Scan>, fillcolor="#39e581"] ;
98 -> 112 ;
113 [label=<Init_Win_bytes_forward &le; 257.5<br/>gini = 0.0<br/>samples = 36483<br/>value = [1, 36482, 0]<br/>class = Scan>, fillcolor="#39e581"] ;
97 -> 113 ;
114 [label=<gini = 0.0<br/>samples = 21655<br/>value = [0, 21655, 0]<br/>class = Scan>, fillcolor="#39e581"] ;
113 -> 114 ;
115 [label=<Init_Win_bytes_forward &le; 269.0<br/>gini = 0.0<br/>samples = 14828<br/>value = [1, 14827, 0]<br/>class = Scan>, fillcolor="#39e581"] ;
113 -> 115 ;
116 [label=<gini = 0.0<br/>samples = 1<br/>value = [1, 0, 0]<br/>class = DoS>, fillcolor="#e58139"] ;
115 -> 116 ;
117 [label=<gini = 0.0<br/>samples = 14827<br/>value = [0, 14827, 0]<br/>class = Scan>, fillcolor="#39e581"] ;
115 -> 117 ;
118 [label=<Flow IAT Mean &le; 942.5<br/>gini = 0.008<br/>samples = 1722<br/>value = [7, 1715, 0]<br/>class = Scan>, fillcolor="#3ae582"] ;
84 -> 118 ;
119 [label=<Fwd IAT Min &le; 12.5<br/>gini = 0.007<br/>samples = 1692<br/>value = [6, 1686, 0]<br/>class = Scan>, fillcolor="#3ae581"] ;
118 -> 119 ;
120 [label=<Subflow Fwd Packets &le; 2.5<br/>gini = 0.057<br/>samples = 34<br/>value = [1, 33, 0]<br/>class = Scan>, fillcolor="#3fe685"] ;
119 -> 120 ;
121 [label=<gini = 0.0<br/>samples = 32<br/>value = [0, 32, 0]<br/>class = Scan>, fillcolor="#39e581"] ;
120 -> 121 ;
122 [label=<Flow Packets/s &le; 8563.044<br/>gini = 0.5<br/>samples = 2<br/>value = [1, 1, 0]<br/>class = DoS>, fillcolor="#ffffff"] ;
120 -> 122 ;
123 [label=<gini = 0.0<br/>samples = 1<br/>value = [0, 1, 0]<br/>class = Scan>, fillcolor="#39e581"] ;
122 -> 123 ;
124 [label=<gini = 0.0<br/>samples = 1<br/>value = [1, 0, 0]<br/>class = DoS>, fillcolor="#e58139"] ;
122 -> 124 ;
125 [label=<Fwd IAT Min &le; 40.5<br/>gini = 0.006<br/>samples = 1658<br/>value = [5, 1653, 0]<br/>class = Scan>, fillcolor="#3ae581"] ;
119 -> 125 ;
126 [label=<Fwd IAT Min &le; 39.5<br/>gini = 0.013<br/>samples = 472<br/>value = [3, 469, 0]<br/>class = Scan>, fillcolor="#3ae582"] ;
125 -> 126 ;
127 [label=<Fwd IAT Min &le; 35.5<br/>gini = 0.009<br/>samples = 465<br/>value = [2, 463, 0]<br/>class = Scan>, fillcolor="#3ae582"] ;
126 -> 127 ;
128 [label=<Fwd IAT Min &le; 22.5<br/>gini = 0.004<br/>samples = 445<br/>value = [1, 444, 0]<br/>class = Scan>, fillcolor="#39e581"] ;
127 -> 128 ;
129 [label=<gini = 0.0<br/>samples = 386<br/>value = [0, 386, 0]<br/>class = Scan>, fillcolor="#39e581"] ;
128 -> 129 ;
130 [label=<Fwd IAT Min &le; 23.5<br/>gini = 0.033<br/>samples = 59<br/>value = [1, 58, 0]<br/>class = Scan>, fillcolor="#3ce583"] ;
128 -> 130 ;
131 [label=<Fwd Packets/s &le; 12991.15<br/>gini = 0.375<br/>samples = 4<br/>value = [1, 3, 0]<br/>class = Scan>, fillcolor="#7beeab"] ;
130 -> 131 ;
132 [label=<gini = 0.0<br/>samples = 2<br/>value = [0, 2, 0]<br/>class = Scan>, fillcolor="#39e581"] ;
131 -> 132 ;
133 [label=<Total Fwd Packets &le; 2.5<br/>gini = 0.5<br/>samples = 2<br/>value = [1, 1, 0]<br/>class = DoS>, fillcolor="#ffffff"] ;
131 -> 133 ;
134 [label=<gini = 0.0<br/>samples = 1<br/>value = [0, 1, 0]<br/>class = Scan>, fillcolor="#39e581"] ;
133 -> 134 ;
135 [label=<gini = 0.0<br/>samples = 1<br/>value = [1, 0, 0]<br/>class = DoS>, fillcolor="#e58139"] ;
133 -> 135 ;
136 [label=<gini = 0.0<br/>samples = 55<br/>value = [0, 55, 0]<br/>class = Scan>, fillcolor="#39e581"] ;
130 -> 136 ;
137 [label=<Fwd IAT Total &le; 36.5<br/>gini = 0.095<br/>samples = 20<br/>value = [1, 19, 0]<br/>class = Scan>, fillcolor="#43e688"] ;
127 -> 137 ;
138 [label=<Init_Win_bytes_forward &le; 253.5<br/>gini = 0.5<br/>samples = 2<br/>value = [1, 1, 0]<br/>class = DoS>, fillcolor="#ffffff"] ;
137 -> 138 ;
139 [label=<gini = 0.0<br/>samples = 1<br/>value = [0, 1, 0]<br/>class = Scan>, fillcolor="#39e581"] ;
138 -> 139 ;
140 [label=<gini = 0.0<br/>samples = 1<br/>value = [1, 0, 0]<br/>class = DoS>, fillcolor="#e58139"] ;
138 -> 140 ;
141 [label=<gini = 0.0<br/>samples = 18<br/>value = [0, 18, 0]<br/>class = Scan>, fillcolor="#39e581"] ;
137 -> 141 ;
142 [label=<Fwd Header Length &le; 80.0<br/>gini = 0.245<br/>samples = 7<br/>value = [1, 6, 0]<br/>class = Scan>, fillcolor="#5ae996"] ;
126 -> 142 ;
143 [label=<Init_Win_bytes_forward &le; 262.5<br/>gini = 0.444<br/>samples = 3<br/>value = [1, 2, 0]<br/>class = Scan>, fillcolor="#9cf2c0"] ;
142 -> 143 ;
144 [label=<gini = 0.0<br/>samples = 1<br/>value = [1, 0, 0]<br/>class = DoS>, fillcolor="#e58139"] ;
143 -> 144 ;
145 [label=<gini = 0.0<br/>samples = 2<br/>value = [0, 2, 0]<br/>class = Scan>, fillcolor="#39e581"] ;
143 -> 145 ;
146 [label=<gini = 0.0<br/>samples = 4<br/>value = [0, 4, 0]<br/>class = Scan>, fillcolor="#39e581"] ;
142 -> 146 ;
147 [label=<Flow IAT Min &le; 48.5<br/>gini = 0.003<br/>samples = 1186<br/>value = [2, 1184, 0]<br/>class = Scan>, fillcolor="#39e581"] ;
125 -> 147 ;
148 [label=<gini = 0.0<br/>samples = 803<br/>value = [0, 803, 0]<br/>class = Scan>, fillcolor="#39e581"] ;
147 -> 148 ;
149 [label=<Init_Win_bytes_forward &le; 253.5<br/>gini = 0.01<br/>samples = 383<br/>value = [2, 381, 0]<br/>class = Scan>, fillcolor="#3ae582"] ;
147 -> 149 ;
150 [label=<gini = 0.0<br/>samples = 238<br/>value = [0, 238, 0]<br/>class = Scan>, fillcolor="#39e581"] ;
149 -> 150 ;
151 [label=<Init_Win_bytes_forward &le; 265.0<br/>gini = 0.027<br/>samples = 145<br/>value = [2, 143, 0]<br/>class = Scan>, fillcolor="#3ce583"] ;
149 -> 151 ;
152 [label=<gini = 0.0<br/>samples = 1<br/>value = [1, 0, 0]<br/>class = DoS>, fillcolor="#e58139"] ;
151 -> 152 ;
153 [label=<Fwd IAT Mean &le; 90.25<br/>gini = 0.014<br/>samples = 144<br/>value = [1, 143, 0]<br/>class = Scan>, fillcolor="#3ae582"] ;
151 -> 153 ;
154 [label=<gini = 0.015<br/>samples = 132<br/>value = [1, 131, 0]<br/>class = Scan>, fillcolor="#3be582"] ;
153 -> 154 ;
155 [label=<gini = 0.0<br/>samples = 12<br/>value = [0, 12, 0]<br/>class = Scan>, fillcolor="#39e581"] ;
153 -> 155 ;
156 [label=<Fwd IAT Total &le; 2924.0<br/>gini = 0.064<br/>samples = 30<br/>value = [1, 29, 0]<br/>class = Scan>, fillcolor="#40e685"] ;
118 -> 156 ;
157 [label=<gini = 0.0<br/>samples = 1<br/>value = [1, 0, 0]<br/>class = DoS>, fillcolor="#e58139"] ;
156 -> 157 ;
158 [label=<gini = 0.0<br/>samples = 29<br/>value = [0, 29, 0]<br/>class = Scan>, fillcolor="#39e581"] ;
156 -> 158 ;
159 [label=<Subflow Fwd Packets &le; 4.0<br/>gini = 0.32<br/>samples = 5<br/>value = [1, 4, 0]<br/>class = Scan>, fillcolor="#6aeca0"] ;
83 -> 159 ;
160 [label=<gini = 0.0<br/>samples = 1<br/>value = [1, 0, 0]<br/>class = DoS>, fillcolor="#e58139"] ;
159 -> 160 ;
161 [label=<gini = 0.0<br/>samples = 4<br/>value = [0, 4, 0]<br/>class = Scan>, fillcolor="#39e581"] ;
159 -> 161 ;
162 [label=<gini = 0.0<br/>samples = 1<br/>value = [1, 0, 0]<br/>class = DoS>, fillcolor="#e58139"] ;
82 -> 162 ;
163 [label=<gini = 0.0<br/>samples = 1<br/>value = [1, 0, 0]<br/>class = DoS>, fillcolor="#e58139"] ;
81 -> 163 ;
164 [label=<Flow Duration &le; 907.5<br/>gini = 0.081<br/>samples = 13599<br/>value = [575, 13024, 0]<br/>class = Scan>, fillcolor="#42e687"] ;
78 -> 164 ;
165 [label=<Init_Win_bytes_forward &le; 252.0<br/>gini = 0.204<br/>samples = 4782<br/>value = [551, 4231, 0]<br/>class = Scan>, fillcolor="#53e891"] ;
164 -> 165 ;
166 [label=<Flow Duration &le; 187.5<br/>gini = 0.057<br/>samples = 2909<br/>value = [86, 2823, 0]<br/>class = Scan>, fillcolor="#3fe685"] ;
165 -> 166 ;
167 [label=<Flow IAT Mean &le; 109.5<br/>gini = 0.144<br/>samples = 462<br/>value = [36, 426, 0]<br/>class = Scan>, fillcolor="#4ae78c"] ;
166 -> 167 ;
168 [label=<Flow IAT Min &le; 77.5<br/>gini = 0.046<br/>samples = 169<br/>value = [4, 165, 0]<br/>class = Scan>, fillcolor="#3ee684"] ;
167 -> 168 ;
169 [label=<Flow IAT Max &le; 50.5<br/>gini = 0.019<br/>samples = 104<br/>value = [1, 103, 0]<br/>class = Scan>, fillcolor="#3be582"] ;
168 -> 169 ;
170 [label=<gini = 0.08<br/>samples = 24<br/>value = [1, 23, 0]<br/>class = Scan>, fillcolor="#42e686"] ;
169 -> 170 ;
171 [label=<gini = 0.0<br/>samples = 80<br/>value = [0, 80, 0]<br/>class = Scan>, fillcolor="#39e581"] ;
169 -> 171 ;
172 [label=<Flow IAT Mean &le; 78.5<br/>gini = 0.088<br/>samples = 65<br/>value = [3, 62, 0]<br/>class = Scan>, fillcolor="#43e687"] ;
168 -> 172 ;
173 [label=<gini = 0.0<br/>samples = 1<br/>value = [1, 0, 0]<br/>class = DoS>, fillcolor="#e58139"] ;
172 -> 173 ;
174 [label=<Flow Packets/s &le; 22100.122<br/>gini = 0.061<br/>samples = 64<br/>value = [2, 62, 0]<br/>class = Scan>, fillcolor="#3fe685"] ;
172 -> 174 ;
175 [label=<gini = 0.0<br/>samples = 33<br/>value = [0, 33, 0]<br/>class = Scan>, fillcolor="#39e581"] ;
174 -> 175 ;
176 [label=<Flow IAT Min &le; 89.5<br/>gini = 0.121<br/>samples = 31<br/>value = [2, 29, 0]<br/>class = Scan>, fillcolor="#47e78a"] ;
174 -> 176 ;
177 [label=<Flow IAT Max &le; 86.5<br/>gini = 0.064<br/>samples = 30<br/>value = [1, 29, 0]<br/>class = Scan>, fillcolor="#40e685"] ;
176 -> 177 ;
178 [label=<gini = 0.0<br/>samples = 12<br/>value = [0, 12, 0]<br/>class = Scan>, fillcolor="#39e581"] ;
177 -> 178 ;
179 [label=<Flow Duration &le; 87.5<br/>gini = 0.105<br/>samples = 18<br/>value = [1, 17, 0]<br/>class = Scan>, fillcolor="#45e788"] ;
177 -> 179 ;
180 [label=<gini = 0.18<br/>samples = 10<br/>value = [1, 9, 0]<br/>class = Scan>, fillcolor="#4fe88f"] ;
179 -> 180 ;
181 [label=<gini = 0.0<br/>samples = 8<br/>value = [0, 8, 0]<br/>class = Scan>, fillcolor="#39e581"] ;
179 -> 181 ;
182 [label=<gini = 0.0<br/>samples = 1<br/>value = [1, 0, 0]<br/>class = DoS>, fillcolor="#e58139"] ;
176 -> 182 ;
183 [label=<Flow IAT Min &le; 140.5<br/>gini = 0.195<br/>samples = 293<br/>value = [32, 261, 0]<br/>class = Scan>, fillcolor="#51e890"] ;
167 -> 183 ;
184 [label=<Flow Packets/s &le; 14337.102<br/>gini = 0.324<br/>samples = 54<br/>value = [11, 43, 0]<br/>class = Scan>, fillcolor="#6ceca1"] ;
183 -> 184 ;
185 [label=<gini = 0.0<br/>samples = 1<br/>value = [1, 0, 0]<br/>class = DoS>, fillcolor="#e58139"] ;
184 -> 185 ;
186 [label=<Fwd Packets/s &le; 15936.508<br/>gini = 0.306<br/>samples = 53<br/>value = [10, 43, 0]<br/>class = Scan>, fillcolor="#67eb9e"] ;
184 -> 186 ;
187 [label=<Fwd IAT Mean &le; 136.5<br/>gini = 0.393<br/>samples = 26<br/>value = [7, 19, 0]<br/>class = Scan>, fillcolor="#82efaf"] ;
186 -> 187 ;
188 [label=<Fwd Packets/s &le; 14926.204<br/>gini = 0.48<br/>samples = 15<br/>value = [6, 9, 0]<br/>class = Scan>, fillcolor="#bdf6d5"] ;
187 -> 188 ;
189 [label=<Fwd Packets/s &le; 14760.349<br/>gini = 0.444<br/>samples = 3<br/>value = [2, 1, 0]<br/>class = DoS>, fillcolor="#f2c09c"] ;
188 -> 189 ;
190 [label=<gini = 0.5<br/>samples = 2<br/>value = [1, 1, 0]<br/>class = DoS>, fillcolor="#ffffff"] ;
189 -> 190 ;
191 [label=<gini = 0.0<br/>samples = 1<br/>value = [1, 0, 0]<br/>class = DoS>, fillcolor="#e58139"] ;
189 -> 191 ;
192 [label=<Flow IAT Min &le; 132.5<br/>gini = 0.444<br/>samples = 12<br/>value = [4, 8, 0]<br/>class = Scan>, fillcolor="#9cf2c0"] ;
188 -> 192 ;
193 [label=<Fwd IAT Min &le; 128.5<br/>gini = 0.494<br/>samples = 9<br/>value = [4, 5, 0]<br/>class = Scan>, fillcolor="#d7fae6"] ;
192 -> 193 ;
194 [label=<Flow Duration &le; 126.5<br/>gini = 0.444<br/>samples = 3<br/>value = [1, 2, 0]<br/>class = Scan>, fillcolor="#9cf2c0"] ;
193 -> 194 ;
195 [label=<gini = 0.5<br/>samples = 2<br/>value = [1, 1, 0]<br/>class = DoS>, fillcolor="#ffffff"] ;
194 -> 195 ;
196 [label=<gini = 0.0<br/>samples = 1<br/>value = [0, 1, 0]<br/>class = Scan>, fillcolor="#39e581"] ;
194 -> 196 ;
197 [label=<Flow IAT Min &le; 130.5<br/>gini = 0.5<br/>samples = 6<br/>value = [3, 3, 0]<br/>class = DoS>, fillcolor="#ffffff"] ;
193 -> 197 ;
198 [label=<gini = 0.0<br/>samples = 1<br/>value = [1, 0, 0]<br/>class = DoS>, fillcolor="#e58139"] ;
197 -> 198 ;
199 [label=<Flow Packets/s &le; 15209.346<br/>gini = 0.48<br/>samples = 5<br/>value = [2, 3, 0]<br/>class = Scan>, fillcolor="#bdf6d5"] ;
197 -> 199 ;
200 [label=<gini = 0.5<br/>samples = 2<br/>value = [1, 1, 0]<br/>class = DoS>, fillcolor="#ffffff"] ;
199 -> 200 ;
201 [label=<gini = 0.444<br/>samples = 3<br/>value = [1, 2, 0]<br/>class = Scan>, fillcolor="#9cf2c0"] ;
199 -> 201 ;
202 [label=<gini = 0.0<br/>samples = 3<br/>value = [0, 3, 0]<br/>class = Scan>, fillcolor="#39e581"] ;
192 -> 202 ;
203 [label=<Fwd IAT Mean &le; 138.5<br/>gini = 0.165<br/>samples = 11<br/>value = [1, 10, 0]<br/>class = Scan>, fillcolor="#4de88e"] ;
187 -> 203 ;
204 [label=<gini = 0.0<br/>samples = 6<br/>value = [0, 6, 0]<br/>class = Scan>, fillcolor="#39e581"] ;
203 -> 204 ;
205 [label=<gini = 0.32<br/>samples = 5<br/>value = [1, 4, 0]<br/>class = Scan>, fillcolor="#6aeca0"] ;
203 -> 205 ;
206 [label=<Fwd Packets/s &le; 17242.661<br/>gini = 0.198<br/>samples = 27<br/>value = [3, 24, 0]<br/>class = Scan>, fillcolor="#52e891"] ;
186 -> 206 ;
207 [label=<gini = 0.0<br/>samples = 9<br/>value = [0, 9, 0]<br/>class = Scan>, fillcolor="#39e581"] ;
206 -> 207 ;
208 [label=<Fwd IAT Max &le; 111.5<br/>gini = 0.278<br/>samples = 18<br/>value = [3, 15, 0]<br/>class = Scan>, fillcolor="#61ea9a"] ;
206 -> 208 ;
209 [label=<Fwd Packets/s &le; 18099.918<br/>gini = 0.18<br/>samples = 10<br/>value = [1, 9, 0]<br/>class = Scan>, fillcolor="#4fe88f"] ;
208 -> 209 ;
210 [label=<gini = 0.0<br/>samples = 6<br/>value = [0, 6, 0]<br/>class = Scan>, fillcolor="#39e581"] ;
209 -> 210 ;
211 [label=<gini = 0.375<br/>samples = 4<br/>value = [1, 3, 0]<br/>class = Scan>, fillcolor="#7beeab"] ;
209 -> 211 ;
212 [label=<Flow Packets/s &le; 17778.129<br/>gini = 0.375<br/>samples = 8<br/>value = [2, 6, 0]<br/>class = Scan>, fillcolor="#7beeab"] ;
208 -> 212 ;
213 [label=<Flow IAT Mean &le; 114.5<br/>gini = 0.245<br/>samples = 7<br/>value = [1, 6, 0]<br/>class = Scan>, fillcolor="#5ae996"] ;
212 -> 213 ;
214 [label=<gini = 0.0<br/>samples = 3<br/>value = [0, 3, 0]<br/>class = Scan>, fillcolor="#39e581"] ;
213 -> 214 ;
215 [label=<gini = 0.375<br/>samples = 4<br/>value = [1, 3, 0]<br/>class = Scan>, fillcolor="#7beeab"] ;
213 -> 215 ;
216 [label=<gini = 0.0<br/>samples = 1<br/>value = [1, 0, 0]<br/>class = DoS>, fillcolor="#e58139"] ;
212 -> 216 ;
217 [label=<Fwd IAT Min &le; 177.5<br/>gini = 0.16<br/>samples = 239<br/>value = [21, 218, 0]<br/>class = Scan>, fillcolor="#4ce88d"] ;
183 -> 217 ;
218 [label=<Fwd Packets/s &le; 12195.575<br/>gini = 0.12<br/>samples = 156<br/>value = [10, 146, 0]<br/>class = Scan>, fillcolor="#47e78a"] ;
217 -> 218 ;
219 [label=<Fwd Packets/s &le; 11396.104<br/>gini = 0.079<br/>samples = 73<br/>value = [3, 70, 0]<br/>class = Scan>, fillcolor="#41e686"] ;
218 -> 219 ;
220 [label=<gini = 0.0<br/>samples = 14<br/>value = [0, 14, 0]<br/>class = Scan>, fillcolor="#39e581"] ;
219 -> 220 ;
221 [label=<Fwd IAT Min &le; 174.5<br/>gini = 0.097<br/>samples = 59<br/>value = [3, 56, 0]<br/>class = Scan>, fillcolor="#44e688"] ;
219 -> 221 ;
222 [label=<Flow Packets/s &le; 11940.405<br/>gini = 0.073<br/>samples = 53<br/>value = [2, 51, 0]<br/>class = Scan>, fillcolor="#41e686"] ;
221 -> 222 ;
223 [label=<Fwd IAT Mean &le; 168.5<br/>gini = 0.097<br/>samples = 39<br/>value = [2, 37, 0]<br/>class = Scan>, fillcolor="#44e688"] ;
222 -> 223 ;
224 [label=<gini = 0.278<br/>samples = 6<br/>value = [1, 5, 0]<br/>class = Scan>, fillcolor="#61ea9a"] ;
223 -> 224 ;
225 [label=<Flow Duration &le; 172.5<br/>gini = 0.059<br/>samples = 33<br/>value = [1, 32, 0]<br/>class = Scan>, fillcolor="#3fe685"] ;
223 -> 225 ;
226 [label=<gini = 0.0<br/>samples = 20<br/>value = [0, 20, 0]<br/>class = Scan>, fillcolor="#39e581"] ;
225 -> 226 ;
227 [label=<Fwd Packets/s &le; 11527.473<br/>gini = 0.142<br/>samples = 13<br/>value = [1, 12, 0]<br/>class = Scan>, fillcolor="#49e78c"] ;
225 -> 227 ;
228 [label=<gini = 0.0<br/>samples = 8<br/>value = [0, 8, 0]<br/>class = Scan>, fillcolor="#39e581"] ;
227 -> 228 ;
229 [label=<gini = 0.32<br/>samples = 5<br/>value = [1, 4, 0]<br/>class = Scan>, fillcolor="#6aeca0"] ;
227 -> 229 ;
230 [label=<gini = 0.0<br/>samples = 14<br/>value = [0, 14, 0]<br/>class = Scan>, fillcolor="#39e581"] ;
222 -> 230 ;
231 [label=<gini = 0.278<br/>samples = 6<br/>value = [1, 5, 0]<br/>class = Scan>, fillcolor="#61ea9a"] ;
221 -> 231 ;
232 [label=<Fwd IAT Mean &le; 159.5<br/>gini = 0.154<br/>samples = 83<br/>value = [7, 76, 0]<br/>class = Scan>, fillcolor="#4be78d"] ;
218 -> 232 ;
233 [label=<Flow Duration &le; 146.5<br/>gini = 0.116<br/>samples = 65<br/>value = [4, 61, 0]<br/>class = Scan>, fillcolor="#46e789"] ;
232 -> 233 ;
234 [label=<Flow IAT Mean &le; 143.0<br/>gini = 0.219<br/>samples = 16<br/>value = [2, 14, 0]<br/>class = Scan>, fillcolor="#55e993"] ;
233 -> 234 ;
235 [label=<gini = 0.0<br/>samples = 7<br/>value = [0, 7, 0]<br/>class = Scan>, fillcolor="#39e581"] ;
234 -> 235 ;
236 [label=<Fwd IAT Mean &le; 144.5<br/>gini = 0.346<br/>samples = 9<br/>value = [2, 7, 0]<br/>class = Scan>, fillcolor="#72eca5"] ;
234 -> 236 ;
237 [label=<gini = 0.375<br/>samples = 4<br/>value = [1, 3, 0]<br/>class = Scan>, fillcolor="#7beeab"] ;
236 -> 237 ;
238 [label=<Fwd Packets/s &le; 13745.867<br/>gini = 0.32<br/>samples = 5<br/>value = [1, 4, 0]<br/>class = Scan>, fillcolor="#6aeca0"] ;
236 -> 238 ;
239 [label=<gini = 0.375<br/>samples = 4<br/>value = [1, 3, 0]<br/>class = Scan>, fillcolor="#7beeab"] ;
238 -> 239 ;
240 [label=<gini = 0.0<br/>samples = 1<br/>value = [0, 1, 0]<br/>class = Scan>, fillcolor="#39e581"] ;
238 -> 240 ;
241 [label=<Fwd Packets/s &le; 13029.454<br/>gini = 0.078<br/>samples = 49<br/>value = [2, 47, 0]<br/>class = Scan>, fillcolor="#41e686"] ;
233 -> 241 ;
242 [label=<Flow IAT Mean &le; 156.5<br/>gini = 0.159<br/>samples = 23<br/>value = [2, 21, 0]<br/>class = Scan>, fillcolor="#4ce78d"] ;
241 -> 242 ;
243 [label=<Flow IAT Min &le; 155.5<br/>gini = 0.278<br/>samples = 12<br/>value = [2, 10, 0]<br/>class = Scan>, fillcolor="#61ea9a"] ;
242 -> 243 ;
244 [label=<Flow Packets/s &le; 12945.119<br/>gini = 0.18<br/>samples = 10<br/>value = [1, 9, 0]<br/>class = Scan>, fillcolor="#4fe88f"] ;
243 -> 244 ;
245 [label=<gini = 0.0<br/>samples = 6<br/>value = [0, 6, 0]<br/>class = Scan>, fillcolor="#39e581"] ;
244 -> 245 ;
246 [label=<gini = 0.375<br/>samples = 4<br/>value = [1, 3, 0]<br/>class = Scan>, fillcolor="#7beeab"] ;
244 -> 246 ;
247 [label=<gini = 0.5<br/>samples = 2<br/>value = [1, 1, 0]<br/>class = DoS>, fillcolor="#ffffff"] ;
243 -> 247 ;
248 [label=<gini = 0.0<br/>samples = 11<br/>value = [0, 11, 0]<br/>class = Scan>, fillcolor="#39e581"] ;
242 -> 248 ;
249 [label=<gini = 0.0<br/>samples = 26<br/>value = [0, 26, 0]<br/>class = Scan>, fillcolor="#39e581"] ;
241 -> 249 ;
250 [label=<Flow Packets/s &le; 12461.18<br/>gini = 0.278<br/>samples = 18<br/>value = [3, 15, 0]<br/>class = Scan>, fillcolor="#61ea9a"] ;
232 -> 250 ;
251 [label=<Fwd IAT Min &le; 162.5<br/>gini = 0.219<br/>samples = 16<br/>value = [2, 14, 0]<br/>class = Scan>, fillcolor="#55e993"] ;
250 -> 251 ;
252 [label=<Fwd IAT Total &le; 161.5<br/>gini = 0.153<br/>samples = 12<br/>value = [1, 11, 0]<br/>class = Scan>, fillcolor="#4be78c"] ;
251 -> 252 ;
253 [label=<gini = 0.219<br/>samples = 8<br/>value = [1, 7, 0]<br/>class = Scan>, fillcolor="#55e993"] ;
252 -> 253 ;
254 [label=<gini = 0.0<br/>samples = 4<br/>value = [0, 4, 0]<br/>class = Scan>, fillcolor="#39e581"] ;
252 -> 254 ;
255 [label=<gini = 0.375<br/>samples = 4<br/>value = [1, 3, 0]<br/>class = Scan>, fillcolor="#7beeab"] ;
251 -> 255 ;
256 [label=<gini = 0.5<br/>samples = 2<br/>value = [1, 1, 0]<br/>class = DoS>, fillcolor="#ffffff"] ;
250 -> 256 ;
257 [label=<Fwd Packets/s &le; 10958.986<br/>gini = 0.23<br/>samples = 83<br/>value = [11, 72, 0]<br/>class = Scan>, fillcolor="#57e994"] ;
217 -> 257 ;
258 [label=<Fwd IAT Max &le; 186.5<br/>gini = 0.168<br/>samples = 54<br/>value = [5, 49, 0]<br/>class = Scan>, fillcolor="#4de88e"] ;
257 -> 258 ;
259 [label=<Fwd IAT Mean &le; 185.5<br/>gini = 0.13<br/>samples = 43<br/>value = [3, 40, 0]<br/>class = Scan>, fillcolor="#48e78a"] ;
258 -> 259 ;
260 [label=<Fwd IAT Total &le; 183.5<br/>gini = 0.18<br/>samples = 30<br/>value = [3, 27, 0]<br/>class = Scan>, fillcolor="#4fe88f"] ;
259 -> 260 ;
261 [label=<gini = 0.0<br/>samples = 10<br/>value = [0, 10, 0]<br/>class = Scan>, fillcolor="#39e581"] ;
260 -> 261 ;
262 [label=<Flow IAT Mean &le; 184.5<br/>gini = 0.255<br/>samples = 20<br/>value = [3, 17, 0]<br/>class = Scan>, fillcolor="#5cea97"] ;
260 -> 262 ;
263 [label=<gini = 0.219<br/>samples = 8<br/>value = [1, 7, 0]<br/>class = Scan>, fillcolor="#55e993"] ;
262 -> 263 ;
264 [label=<gini = 0.278<br/>samples = 12<br/>value = [2, 10, 0]<br/>class = Scan>, fillcolor="#61ea9a"] ;
262 -> 264 ;
265 [label=<gini = 0.0<br/>samples = 13<br/>value = [0, 13, 0]<br/>class = Scan>, fillcolor="#39e581"] ;
259 -> 265 ;
266 [label=<gini = 0.298<br/>samples = 11<br/>value = [2, 9, 0]<br/>class = Scan>, fillcolor="#65eb9d"] ;
258 -> 266 ;
267 [label=<Flow Packets/s &le; 11019.367<br/>gini = 0.328<br/>samples = 29<br/>value = [6, 23, 0]<br/>class = Scan>, fillcolor="#6deca2"] ;
257 -> 267 ;
268 [label=<gini = 0.42<br/>samples = 10<br/>value = [3, 7, 0]<br/>class = Scan>, fillcolor="#8ef0b7"] ;
267 -> 268 ;
269 [label=<Flow IAT Min &le; 179.5<br/>gini = 0.266<br/>samples = 19<br/>value = [3, 16, 0]<br/>class = Scan>, fillcolor="#5eea99"] ;
267 -> 269 ;
270 [label=<Fwd IAT Min &le; 178.5<br/>gini = 0.219<br/>samples = 8<br/>value = [1, 7, 0]<br/>class = Scan>, fillcolor="#55e993"] ;
269 -> 270 ;
271 [label=<gini = 0.32<br/>samples = 5<br/>value = [1, 4, 0]<br/>class = Scan>, fillcolor="#6aeca0"] ;
270 -> 271 ;
272 [label=<gini = 0.0<br/>samples = 3<br/>value = [0, 3, 0]<br/>class = Scan>, fillcolor="#39e581"] ;
270 -> 272 ;
273 [label=<Flow Packets/s &le; 11080.417<br/>gini = 0.298<br/>samples = 11<br/>value = [2, 9, 0]<br/>class = Scan>, fillcolor="#65eb9d"] ;
269 -> 273 ;
274 [label=<gini = 0.245<br/>samples = 7<br/>value = [1, 6, 0]<br/>class = Scan>, fillcolor="#5ae996"] ;
273 -> 274 ;
275 [label=<gini = 0.375<br/>samples = 4<br/>value = [1, 3, 0]<br/>class = Scan>, fillcolor="#7beeab"] ;
273 -> 275 ;
276 [label=<Flow IAT Min &le; 311.5<br/>gini = 0.04<br/>samples = 2447<br/>value = [50, 2397, 0]<br/>class = Scan>, fillcolor="#3de684"] ;
166 -> 276 ;
277 [label=<Flow Duration &le; 206.5<br/>gini = 0.029<br/>samples = 2266<br/>value = [33, 2233, 0]<br/>class = Scan>, fillcolor="#3ce583"] ;
276 -> 277 ;
278 [label=<Flow IAT Min &le; 189.5<br/>gini = 0.061<br/>samples = 512<br/>value = [16, 496, 0]<br/>class = Scan>, fillcolor="#3fe685"] ;
277 -> 278 ;
279 [label=<gini = 0.0<br/>samples = 165<br/>value = [0, 165, 0]<br/>class = Scan>, fillcolor="#39e581"] ;
278 -> 279 ;
280 [label=<Flow Duration &le; 190.5<br/>gini = 0.088<br/>samples = 347<br/>value = [16, 331, 0]<br/>class = Scan>, fillcolor="#43e687"] ;
278 -> 280 ;
281 [label=<gini = 0.188<br/>samples = 19<br/>value = [2, 17, 0]<br/>class = Scan>, fillcolor="#50e890"] ;
280 -> 281 ;
282 [label=<Fwd IAT Mean &le; 192.5<br/>gini = 0.082<br/>samples = 328<br/>value = [14, 314, 0]<br/>class = Scan>, fillcolor="#42e687"] ;
280 -> 282 ;
283 [label=<Flow IAT Max &le; 191.5<br/>gini = 0.028<br/>samples = 70<br/>value = [1, 69, 0]<br/>class = Scan>, fillcolor="#3ce583"] ;
282 -> 283 ;
284 [label=<gini = 0.057<br/>samples = 34<br/>value = [1, 33, 0]<br/>class = Scan>, fillcolor="#3fe685"] ;
283 -> 284 ;
285 [label=<gini = 0.0<br/>samples = 36<br/>value = [0, 36, 0]<br/>class = Scan>, fillcolor="#39e581"] ;
283 -> 285 ;
286 [label=<Fwd IAT Min &le; 195.5<br/>gini = 0.096<br/>samples = 258<br/>value = [13, 245, 0]<br/>class = Scan>, fillcolor="#44e688"] ;
282 -> 286 ;
287 [label=<Fwd IAT Total &le; 193.5<br/>gini = 0.18<br/>samples = 40<br/>value = [4, 36, 0]<br/>class = Scan>, fillcolor="#4fe88f"] ;
286 -> 287 ;
288 [label=<gini = 0.159<br/>samples = 23<br/>value = [2, 21, 0]<br/>class = Scan>, fillcolor="#4ce78d"] ;
287 -> 288 ;
289 [label=<Flow IAT Max &le; 194.5<br/>gini = 0.208<br/>samples = 17<br/>value = [2, 15, 0]<br/>class = Scan>, fillcolor="#53e892"] ;
287 -> 289 ;
290 [label=<gini = 0.219<br/>samples = 8<br/>value = [1, 7, 0]<br/>class = Scan>, fillcolor="#55e993"] ;
289 -> 290 ;
291 [label=<gini = 0.198<br/>samples = 9<br/>value = [1, 8, 0]<br/>class = Scan>, fillcolor="#52e891"] ;
289 -> 291 ;
292 [label=<Fwd IAT Total &le; 200.5<br/>gini = 0.079<br/>samples = 218<br/>value = [9, 209, 0]<br/>class = Scan>, fillcolor="#42e686"] ;
286 -> 292 ;
293 [label=<Fwd IAT Min &le; 196.5<br/>gini = 0.041<br/>samples = 95<br/>value = [2, 93, 0]<br/>class = Scan>, fillcolor="#3de684"] ;
292 -> 293 ;
294 [label=<gini = 0.0<br/>samples = 17<br/>value = [0, 17, 0]<br/>class = Scan>, fillcolor="#39e581"] ;
293 -> 294 ;
295 [label=<Flow IAT Max &le; 197.5<br/>gini = 0.05<br/>samples = 78<br/>value = [2, 76, 0]<br/>class = Scan>, fillcolor="#3ee684"] ;
293 -> 295 ;
296 [label=<gini = 0.105<br/>samples = 18<br/>value = [1, 17, 0]<br/>class = Scan>, fillcolor="#45e788"] ;
295 -> 296 ;
297 [label=<Fwd IAT Mean &le; 198.5<br/>gini = 0.033<br/>samples = 60<br/>value = [1, 59, 0]<br/>class = Scan>, fillcolor="#3ce583"] ;
295 -> 297 ;
298 [label=<gini = 0.0<br/>samples = 23<br/>value = [0, 23, 0]<br/>class = Scan>, fillcolor="#39e581"] ;
297 -> 298 ;
299 [label=<Flow Duration &le; 199.5<br/>gini = 0.053<br/>samples = 37<br/>value = [1, 36, 0]<br/>class = Scan>, fillcolor="#3ee684"] ;
297 -> 299 ;
300 [label=<gini = 0.091<br/>samples = 21<br/>value = [1, 20, 0]<br/>class = Scan>, fillcolor="#43e687"] ;
299 -> 300 ;
301 [label=<gini = 0.0<br/>samples = 16<br/>value = [0, 16, 0]<br/>class = Scan>, fillcolor="#39e581"] ;
299 -> 301 ;
302 [label=<Flow IAT Mean &le; 201.5<br/>gini = 0.107<br/>samples = 123<br/>value = [7, 116, 0]<br/>class = Scan>, fillcolor="#45e789"] ;
292 -> 302 ;
303 [label=<gini = 0.159<br/>samples = 23<br/>value = [2, 21, 0]<br/>class = Scan>, fillcolor="#4ce78d"] ;
302 -> 303 ;
304 [label=<Fwd IAT Min &le; 202.5<br/>gini = 0.095<br/>samples = 100<br/>value = [5, 95, 0]<br/>class = Scan>, fillcolor="#43e688"] ;
302 -> 304 ;
305 [label=<gini = 0.0<br/>samples = 20<br/>value = [0, 20, 0]<br/>class = Scan>, fillcolor="#39e581"] ;
304 -> 305 ;
306 [label=<Fwd IAT Max &le; 203.5<br/>gini = 0.117<br/>samples = 80<br/>value = [5, 75, 0]<br/>class = Scan>, fillcolor="#46e789"] ;
304 -> 306 ;
307 [label=<gini = 0.091<br/>samples = 21<br/>value = [1, 20, 0]<br/>class = Scan>, fillcolor="#43e687"] ;
306 -> 307 ;
308 [label=<Flow IAT Max &le; 205.5<br/>gini = 0.126<br/>samples = 59<br/>value = [4, 55, 0]<br/>class = Scan>, fillcolor="#47e78a"] ;
306 -> 308 ;
309 [label=<Flow Duration &le; 204.5<br/>gini = 0.139<br/>samples = 40<br/>value = [3, 37, 0]<br/>class = Scan>, fillcolor="#49e78b"] ;
308 -> 309 ;
310 [label=<gini = 0.117<br/>samples = 16<br/>value = [1, 15, 0]<br/>class = Scan>, fillcolor="#46e789"] ;
309 -> 310 ;
311 [label=<gini = 0.153<br/>samples = 24<br/>value = [2, 22, 0]<br/>class = Scan>, fillcolor="#4be78c"] ;
309 -> 311 ;
312 [label=<gini = 0.1<br/>samples = 19<br/>value = [1, 18, 0]<br/>class = Scan>, fillcolor="#44e688"] ;
308 -> 312 ;
313 [label=<Fwd IAT Total &le; 272.5<br/>gini = 0.019<br/>samples = 1754<br/>value = [17, 1737, 0]<br/>class = Scan>, fillcolor="#3be582"] ;
277 -> 313 ;
314 [label=<Fwd IAT Min &le; 271.0<br/>gini = 0.024<br/>samples = 1424<br/>value = [17, 1407, 0]<br/>class = Scan>, fillcolor="#3be583"] ;
313 -> 314 ;
315 [label=<Flow IAT Max &le; 222.5<br/>gini = 0.022<br/>samples = 1415<br/>value = [16, 1399, 0]<br/>class = Scan>, fillcolor="#3be582"] ;
314 -> 315 ;
316 [label=<Fwd IAT Total &le; 218.5<br/>gini = 0.013<br/>samples = 601<br/>value = [4, 597, 0]<br/>class = Scan>, fillcolor="#3ae582"] ;
315 -> 316 ;
317 [label=<Flow Duration &le; 217.5<br/>gini = 0.02<br/>samples = 391<br/>value = [4, 387, 0]<br/>class = Scan>, fillcolor="#3be582"] ;
316 -> 317 ;
318 [label=<Fwd IAT Mean &le; 212.5<br/>gini = 0.012<br/>samples = 336<br/>value = [2, 334, 0]<br/>class = Scan>, fillcolor="#3ae582"] ;
317 -> 318 ;
319 [label=<gini = 0.0<br/>samples = 150<br/>value = [0, 150, 0]<br/>class = Scan>, fillcolor="#39e581"] ;
318 -> 319 ;
320 [label=<Fwd IAT Min &le; 213.5<br/>gini = 0.021<br/>samples = 186<br/>value = [2, 184, 0]<br/>class = Scan>, fillcolor="#3be582"] ;
318 -> 320 ;
321 [label=<gini = 0.064<br/>samples = 30<br/>value = [1, 29, 0]<br/>class = Scan>, fillcolor="#40e685"] ;
320 -> 321 ;
322 [label=<Flow IAT Min &le; 215.5<br/>gini = 0.013<br/>samples = 156<br/>value = [1, 155, 0]<br/>class = Scan>, fillcolor="#3ae582"] ;
320 -> 322 ;
323 [label=<gini = 0.0<br/>samples = 78<br/>value = [0, 78, 0]<br/>class = Scan>, fillcolor="#39e581"] ;
322 -> 323 ;
324 [label=<Fwd IAT Mean &le; 216.5<br/>gini = 0.025<br/>samples = 78<br/>value = [1, 77, 0]<br/>class = Scan>, fillcolor="#3ce583"] ;
322 -> 324 ;
325 [label=<gini = 0.054<br/>samples = 36<br/>value = [1, 35, 0]<br/>class = Scan>, fillcolor="#3fe685"] ;
324 -> 325 ;
326 [label=<gini = 0.0<br/>samples = 42<br/>value = [0, 42, 0]<br/>class = Scan>, fillcolor="#39e581"] ;
324 -> 326 ;
327 [label=<gini = 0.07<br/>samples = 55<br/>value = [2, 53, 0]<br/>class = Scan>, fillcolor="#40e686"] ;
317 -> 327 ;
328 [label=<gini = 0.0<br/>samples = 210<br/>value = [0, 210, 0]<br/>class = Scan>, fillcolor="#39e581"] ;
316 -> 328 ;
329 [label=<Fwd IAT Min &le; 225.5<br/>gini = 0.029<br/>samples = 814<br/>value = [12, 802, 0]<br/>class = Scan>, fillcolor="#3ce583"] ;
315 -> 329 ;
330 [label=<Fwd IAT Max &le; 224.5<br/>gini = 0.074<br/>samples = 156<br/>value = [6, 150, 0]<br/>class = Scan>, fillcolor="#41e686"] ;
329 -> 330 ;
331 [label=<Flow IAT Min &le; 223.5<br/>gini = 0.054<br/>samples = 108<br/>value = [3, 105, 0]<br/>class = Scan>, fillcolor="#3fe685"] ;
330 -> 331 ;
332 [label=<gini = 0.062<br/>samples = 62<br/>value = [2, 60, 0]<br/>class = Scan>, fillcolor="#40e685"] ;
331 -> 332 ;
333 [label=<gini = 0.043<br/>samples = 46<br/>value = [1, 45, 0]<br/>class = Scan>, fillcolor="#3de684"] ;
331 -> 333 ;
334 [label=<gini = 0.117<br/>samples = 48<br/>value = [3, 45, 0]<br/>class = Scan>, fillcolor="#46e789"] ;
330 -> 334 ;
335 [label=<Flow IAT Min &le; 245.5<br/>gini = 0.018<br/>samples = 658<br/>value = [6, 652, 0]<br/>class = Scan>, fillcolor="#3be582"] ;
329 -> 335 ;
336 [label=<Fwd IAT Mean &le; 231.5<br/>gini = 0.009<br/>samples = 459<br/>value = [2, 457, 0]<br/>class = Scan>, fillcolor="#3ae582"] ;
335 -> 336 ;
337 [label=<gini = 0.0<br/>samples = 228<br/>value = [0, 228, 0]<br/>class = Scan>, fillcolor="#39e581"] ;
336 -> 337 ;
338 [label=<Fwd IAT Min &le; 233.5<br/>gini = 0.017<br/>samples = 231<br/>value = [2, 229, 0]<br/>class = Scan>, fillcolor="#3be582"] ;
336 -> 338 ;
339 [label=<Fwd IAT Min &le; 232.5<br/>gini = 0.085<br/>samples = 45<br/>value = [2, 43, 0]<br/>class = Scan>, fillcolor="#42e687"] ;
338 -> 339 ;
340 [label=<gini = 0.077<br/>samples = 25<br/>value = [1, 24, 0]<br/>class = Scan>, fillcolor="#41e686"] ;
339 -> 340 ;
341 [label=<gini = 0.095<br/>samples = 20<br/>value = [1, 19, 0]<br/>class = Scan>, fillcolor="#43e688"] ;
339 -> 341 ;
342 [label=<gini = 0.0<br/>samples = 186<br/>value = [0, 186, 0]<br/>class = Scan>, fillcolor="#39e581"] ;
338 -> 342 ;
343 [label=<Fwd IAT Min &le; 249.5<br/>gini = 0.039<br/>samples = 199<br/>value = [4, 195, 0]<br/>class = Scan>, fillcolor="#3de684"] ;
335 -> 343 ;
344 [label=<Fwd Packets/s &le; 8080.841<br/>gini = 0.117<br/>samples = 48<br/>value = [3, 45, 0]<br/>class = Scan>, fillcolor="#46e789"] ;
343 -> 344 ;
345 [label=<Flow IAT Min &le; 248.5<br/>gini = 0.159<br/>samples = 23<br/>value = [2, 21, 0]<br/>class = Scan>, fillcolor="#4ce78d"] ;
344 -> 345 ;
346 [label=<gini = 0.18<br/>samples = 10<br/>value = [1, 9, 0]<br/>class = Scan>, fillcolor="#4fe88f"] ;
345 -> 346 ;
347 [label=<gini = 0.142<br/>samples = 13<br/>value = [1, 12, 0]<br/>class = Scan>, fillcolor="#49e78c"] ;
345 -> 347 ;
348 [label=<Flow IAT Mean &le; 246.5<br/>gini = 0.077<br/>samples = 25<br/>value = [1, 24, 0]<br/>class = Scan>, fillcolor="#41e686"] ;
344 -> 348 ;
349 [label=<gini = 0.124<br/>samples = 15<br/>value = [1, 14, 0]<br/>class = Scan>, fillcolor="#47e78a"] ;
348 -> 349 ;
350 [label=<gini = 0.0<br/>samples = 10<br/>value = [0, 10, 0]<br/>class = Scan>, fillcolor="#39e581"] ;
348 -> 350 ;
351 [label=<Flow Duration &le; 263.0<br/>gini = 0.013<br/>samples = 151<br/>value = [1, 150, 0]<br/>class = Scan>, fillcolor="#3ae582"] ;
343 -> 351 ;
352 [label=<gini = 0.0<br/>samples = 112<br/>value = [0, 112, 0]<br/>class = Scan>, fillcolor="#39e581"] ;
351 -> 352 ;
353 [label=<Flow IAT Mean &le; 264.5<br/>gini = 0.05<br/>samples = 39<br/>value = [1, 38, 0]<br/>class = Scan>, fillcolor="#3ee684"] ;
351 -> 353 ;
354 [label=<gini = 0.375<br/>samples = 4<br/>value = [1, 3, 0]<br/>class = Scan>, fillcolor="#7beeab"] ;
353 -> 354 ;
355 [label=<gini = 0.0<br/>samples = 35<br/>value = [0, 35, 0]<br/>class = Scan>, fillcolor="#39e581"] ;
353 -> 355 ;
356 [label=<gini = 0.198<br/>samples = 9<br/>value = [1, 8, 0]<br/>class = Scan>, fillcolor="#52e891"] ;
314 -> 356 ;
357 [label=<gini = 0.0<br/>samples = 330<br/>value = [0, 330, 0]<br/>class = Scan>, fillcolor="#39e581"] ;
313 -> 357 ;
358 [label=<Fwd Packets/s &le; 5128.239<br/>gini = 0.17<br/>samples = 181<br/>value = [17, 164, 0]<br/>class = Scan>, fillcolor="#4ee88e"] ;
276 -> 358 ;
359 [label=<Flow IAT Max &le; 835.5<br/>gini = 0.035<br/>samples = 111<br/>value = [2, 109, 0]<br/>class = Scan>, fillcolor="#3de583"] ;
358 -> 359 ;
360 [label=<gini = 0.0<br/>samples = 77<br/>value = [0, 77, 0]<br/>class = Scan>, fillcolor="#39e581"] ;
359 -> 360 ;
361 [label=<Flow Duration &le; 838.0<br/>gini = 0.111<br/>samples = 34<br/>value = [2, 32, 0]<br/>class = Scan>, fillcolor="#45e789"] ;
359 -> 361 ;
362 [label=<gini = 0.0<br/>samples = 1<br/>value = [1, 0, 0]<br/>class = DoS>, fillcolor="#e58139"] ;
361 -> 362 ;
363 [label=<Fwd IAT Min &le; 872.0<br/>gini = 0.059<br/>samples = 33<br/>value = [1, 32, 0]<br/>class = Scan>, fillcolor="#3fe685"] ;
361 -> 363 ;
364 [label=<gini = 0.0<br/>samples = 20<br/>value = [0, 20, 0]<br/>class = Scan>, fillcolor="#39e581"] ;
363 -> 364 ;
365 [label=<Fwd IAT Min &le; 876.0<br/>gini = 0.142<br/>samples = 13<br/>value = [1, 12, 0]<br/>class = Scan>, fillcolor="#49e78c"] ;
363 -> 365 ;
366 [label=<gini = 0.0<br/>samples = 1<br/>value = [1, 0, 0]<br/>class = DoS>, fillcolor="#e58139"] ;
365 -> 366 ;
367 [label=<gini = 0.0<br/>samples = 12<br/>value = [0, 12, 0]<br/>class = Scan>, fillcolor="#39e581"] ;
365 -> 367 ;
368 [label=<Fwd IAT Min &le; 350.0<br/>gini = 0.337<br/>samples = 70<br/>value = [15, 55, 0]<br/>class = Scan>, fillcolor="#6feca3"] ;
358 -> 368 ;
369 [label=<Fwd IAT Max &le; 317.5<br/>gini = 0.278<br/>samples = 60<br/>value = [10, 50, 0]<br/>class = Scan>, fillcolor="#61ea9a"] ;
368 -> 369 ;
370 [label=<Fwd IAT Mean &le; 313.5<br/>gini = 0.153<br/>samples = 24<br/>value = [2, 22, 0]<br/>class = Scan>, fillcolor="#4be78c"] ;
369 -> 370 ;
371 [label=<Flow Packets/s &le; 6400.016<br/>gini = 0.278<br/>samples = 12<br/>value = [2, 10, 0]<br/>class = Scan>, fillcolor="#61ea9a"] ;
370 -> 371 ;
372 [label=<gini = 0.219<br/>samples = 8<br/>value = [1, 7, 0]<br/>class = Scan>, fillcolor="#55e993"] ;
371 -> 372 ;
373 [label=<gini = 0.375<br/>samples = 4<br/>value = [1, 3, 0]<br/>class = Scan>, fillcolor="#7beeab"] ;
371 -> 373 ;
374 [label=<gini = 0.0<br/>samples = 12<br/>value = [0, 12, 0]<br/>class = Scan>, fillcolor="#39e581"] ;
370 -> 374 ;
375 [label=<Flow Duration &le; 318.5<br/>gini = 0.346<br/>samples = 36<br/>value = [8, 28, 0]<br/>class = Scan>, fillcolor="#72eca5"] ;
369 -> 375 ;
376 [label=<gini = 0.0<br/>samples = 2<br/>value = [2, 0, 0]<br/>class = DoS>, fillcolor="#e58139"] ;
375 -> 376 ;
377 [label=<Fwd IAT Total &le; 324.0<br/>gini = 0.291<br/>samples = 34<br/>value = [6, 28, 0]<br/>class = Scan>, fillcolor="#63eb9c"] ;
375 -> 377 ;
378 [label=<gini = 0.0<br/>samples = 10<br/>value = [0, 10, 0]<br/>class = Scan>, fillcolor="#39e581"] ;
377 -> 378 ;
379 [label=<Fwd IAT Max &le; 342.5<br/>gini = 0.375<br/>samples = 24<br/>value = [6, 18, 0]<br/>class = Scan>, fillcolor="#7beeab"] ;
377 -> 379 ;
380 [label=<Fwd IAT Mean &le; 325.5<br/>gini = 0.42<br/>samples = 20<br/>value = [6, 14, 0]<br/>class = Scan>, fillcolor="#8ef0b7"] ;
379 -> 380 ;
381 [label=<gini = 0.5<br/>samples = 2<br/>value = [1, 1, 0]<br/>class = DoS>, fillcolor="#ffffff"] ;
380 -> 381 ;
382 [label=<Fwd Packets/s &le; 6106.885<br/>gini = 0.401<br/>samples = 18<br/>value = [5, 13, 0]<br/>class = Scan>, fillcolor="#85efb1"] ;
380 -> 382 ;
383 [label=<Fwd IAT Min &le; 329.0<br/>gini = 0.444<br/>samples = 15<br/>value = [5, 10, 0]<br/>class = Scan>, fillcolor="#9cf2c0"] ;
382 -> 383 ;
384 [label=<gini = 0.0<br/>samples = 1<br/>value = [1, 0, 0]<br/>class = DoS>, fillcolor="#e58139"] ;
383 -> 384 ;
385 [label=<Fwd IAT Max &le; 331.0<br/>gini = 0.408<br/>samples = 14<br/>value = [4, 10, 0]<br/>class = Scan>, fillcolor="#88efb3"] ;
383 -> 385 ;
386 [label=<gini = 0.5<br/>samples = 2<br/>value = [1, 1, 0]<br/>class = DoS>, fillcolor="#ffffff"] ;
385 -> 386 ;
387 [label=<Flow Packets/s &le; 5970.202<br/>gini = 0.375<br/>samples = 12<br/>value = [3, 9, 0]<br/>class = Scan>, fillcolor="#7beeab"] ;
385 -> 387 ;
388 [label=<Flow IAT Max &le; 337.0<br/>gini = 0.48<br/>samples = 5<br/>value = [2, 3, 0]<br/>class = Scan>, fillcolor="#bdf6d5"] ;
387 -> 388 ;
389 [label=<gini = 0.0<br/>samples = 1<br/>value = [1, 0, 0]<br/>class = DoS>, fillcolor="#e58139"] ;
388 -> 389 ;
390 [label=<Flow IAT Mean &le; 340.5<br/>gini = 0.375<br/>samples = 4<br/>value = [1, 3, 0]<br/>class = Scan>, fillcolor="#7beeab"] ;
388 -> 390 ;
391 [label=<gini = 0.0<br/>samples = 2<br/>value = [0, 2, 0]<br/>class = Scan>, fillcolor="#39e581"] ;
390 -> 391 ;
392 [label=<gini = 0.5<br/>samples = 2<br/>value = [1, 1, 0]<br/>class = DoS>, fillcolor="#ffffff"] ;
390 -> 392 ;
393 [label=<Fwd IAT Min &le; 333.5<br/>gini = 0.245<br/>samples = 7<br/>value = [1, 6, 0]<br/>class = Scan>, fillcolor="#5ae996"] ;
387 -> 393 ;
394 [label=<Fwd IAT Mean &le; 332.5<br/>gini = 0.32<br/>samples = 5<br/>value = [1, 4, 0]<br/>class = Scan>, fillcolor="#6aeca0"] ;
393 -> 394 ;
395 [label=<gini = 0.0<br/>samples = 1<br/>value = [0, 1, 0]<br/>class = Scan>, fillcolor="#39e581"] ;
394 -> 395 ;
396 [label=<gini = 0.375<br/>samples = 4<br/>value = [1, 3, 0]<br/>class = Scan>, fillcolor="#7beeab"] ;
394 -> 396 ;
397 [label=<gini = 0.0<br/>samples = 2<br/>value = [0, 2, 0]<br/>class = Scan>, fillcolor="#39e581"] ;
393 -> 397 ;
398 [label=<gini = 0.0<br/>samples = 3<br/>value = [0, 3, 0]<br/>class = Scan>, fillcolor="#39e581"] ;
382 -> 398 ;
399 [label=<gini = 0.0<br/>samples = 4<br/>value = [0, 4, 0]<br/>class = Scan>, fillcolor="#39e581"] ;
379 -> 399 ;
400 [label=<Fwd IAT Total &le; 351.5<br/>gini = 0.5<br/>samples = 10<br/>value = [5, 5, 0]<br/>class = DoS>, fillcolor="#ffffff"] ;
368 -> 400 ;
401 [label=<gini = 0.0<br/>samples = 1<br/>value = [1, 0, 0]<br/>class = DoS>, fillcolor="#e58139"] ;
400 -> 401 ;
402 [label=<Fwd IAT Mean &le; 386.0<br/>gini = 0.494<br/>samples = 9<br/>value = [4, 5, 0]<br/>class = Scan>, fillcolor="#d7fae6"] ;
400 -> 402 ;
403 [label=<Flow IAT Mean &le; 352.5<br/>gini = 0.469<br/>samples = 8<br/>value = [3, 5, 0]<br/>class = Scan>, fillcolor="#b0f5cd"] ;
402 -> 403 ;
404 [label=<gini = 0.0<br/>samples = 1<br/>value = [0, 1, 0]<br/>class = Scan>, fillcolor="#39e581"] ;
403 -> 404 ;
405 [label=<Flow Packets/s &le; 5657.72<br/>gini = 0.49<br/>samples = 7<br/>value = [3, 4, 0]<br/>class = Scan>, fillcolor="#cef8e0"] ;
403 -> 405 ;
406 [label=<Flow IAT Min &le; 355.0<br/>gini = 0.444<br/>samples = 6<br/>value = [2, 4, 0]<br/>class = Scan>, fillcolor="#9cf2c0"] ;
405 -> 406 ;
407 [label=<gini = 0.0<br/>samples = 1<br/>value = [0, 1, 0]<br/>class = Scan>, fillcolor="#39e581"] ;
406 -> 407 ;
408 [label=<Fwd IAT Mean &le; 360.0<br/>gini = 0.48<br/>samples = 5<br/>value = [2, 3, 0]<br/>class = Scan>, fillcolor="#bdf6d5"] ;
406 -> 408 ;
409 [label=<gini = 0.0<br/>samples = 1<br/>value = [1, 0, 0]<br/>class = DoS>, fillcolor="#e58139"] ;
408 -> 409 ;
410 [label=<Flow Duration &le; 382.0<br/>gini = 0.375<br/>samples = 4<br/>value = [1, 3, 0]<br/>class = Scan>, fillcolor="#7beeab"] ;
408 -> 410 ;
411 [label=<gini = 0.0<br/>samples = 2<br/>value = [0, 2, 0]<br/>class = Scan>, fillcolor="#39e581"] ;
410 -> 411 ;
412 [label=<gini = 0.5<br/>samples = 2<br/>value = [1, 1, 0]<br/>class = DoS>, fillcolor="#ffffff"] ;
410 -> 412 ;
413 [label=<gini = 0.0<br/>samples = 1<br/>value = [1, 0, 0]<br/>class = DoS>, fillcolor="#e58139"] ;
405 -> 413 ;
414 [label=<gini = 0.0<br/>samples = 1<br/>value = [1, 0, 0]<br/>class = DoS>, fillcolor="#e58139"] ;
402 -> 414 ;
415 [label=<Init_Win_bytes_forward &le; 273.5<br/>gini = 0.373<br/>samples = 1873<br/>value = [465, 1408, 0]<br/>class = Scan>, fillcolor="#7aeeab"] ;
165 -> 415 ;
416 [label=<gini = 0.0<br/>samples = 407<br/>value = [407, 0, 0]<br/>class = DoS>, fillcolor="#e58139"] ;
415 -> 416 ;
417 [label=<Flow Duration &le; 167.5<br/>gini = 0.076<br/>samples = 1466<br/>value = [58, 1408, 0]<br/>class = Scan>, fillcolor="#41e686"] ;
415 -> 417 ;
418 [label=<Flow IAT Mean &le; 92.5<br/>gini = 0.24<br/>samples = 179<br/>value = [25, 154, 0]<br/>class = Scan>, fillcolor="#59e995"] ;
417 -> 418 ;
419 [label=<URG Flag Count &le; 0.5<br/>gini = 0.047<br/>samples = 83<br/>value = [2, 81, 0]<br/>class = Scan>, fillcolor="#3ee684"] ;
418 -> 419 ;
420 [label=<Flow IAT Min &le; 69.5<br/>gini = 0.024<br/>samples = 82<br/>value = [1, 81, 0]<br/>class = Scan>, fillcolor="#3be583"] ;
419 -> 420 ;
421 [label=<gini = 0.0<br/>samples = 49<br/>value = [0, 49, 0]<br/>class = Scan>, fillcolor="#39e581"] ;
420 -> 421 ;
422 [label=<Fwd IAT Min &le; 71.0<br/>gini = 0.059<br/>samples = 33<br/>value = [1, 32, 0]<br/>class = Scan>, fillcolor="#3fe685"] ;
420 -> 422 ;
423 [label=<gini = 0.5<br/>samples = 2<br/>value = [1, 1, 0]<br/>class = DoS>, fillcolor="#ffffff"] ;
422 -> 423 ;
424 [label=<gini = 0.0<br/>samples = 31<br/>value = [0, 31, 0]<br/>class = Scan>, fillcolor="#39e581"] ;
422 -> 424 ;
425 [label=<gini = 0.0<br/>samples = 1<br/>value = [1, 0, 0]<br/>class = DoS>, fillcolor="#e58139"] ;
419 -> 425 ;
426 [label=<Fwd IAT Mean &le; 150.5<br/>gini = 0.364<br/>samples = 96<br/>value = [23, 73, 0]<br/>class = Scan>, fillcolor="#77eda9"] ;
418 -> 426 ;
427 [label=<Fwd Packets/s &le; 13468.166<br/>gini = 0.43<br/>samples = 64<br/>value = [20, 44, 0]<br/>class = Scan>, fillcolor="#93f1ba"] ;
426 -> 427 ;
428 [label=<gini = 0.0<br/>samples = 3<br/>value = [3, 0, 0]<br/>class = DoS>, fillcolor="#e58139"] ;
427 -> 428 ;
429 [label=<URG Flag Count &le; 0.5<br/>gini = 0.402<br/>samples = 61<br/>value = [17, 44, 0]<br/>class = Scan>, fillcolor="#86efb2"] ;
427 -> 429 ;
430 [label=<Fwd Packets/s &le; 13652.036<br/>gini = 0.391<br/>samples = 60<br/>value = [16, 44, 0]<br/>class = Scan>, fillcolor="#81eeaf"] ;
429 -> 430 ;
431 [label=<gini = 0.0<br/>samples = 4<br/>value = [0, 4, 0]<br/>class = Scan>, fillcolor="#39e581"] ;
430 -> 431 ;
432 [label=<Fwd Packets/s &le; 14085.206<br/>gini = 0.408<br/>samples = 56<br/>value = [16, 40, 0]<br/>class = Scan>, fillcolor="#88efb3"] ;
430 -> 432 ;
433 [label=<Fwd IAT Mean &le; 143.5<br/>gini = 0.48<br/>samples = 5<br/>value = [3, 2, 0]<br/>class = DoS>, fillcolor="#f6d5bd"] ;
432 -> 433 ;
434 [label=<gini = 0.0<br/>samples = 1<br/>value = [1, 0, 0]<br/>class = DoS>, fillcolor="#e58139"] ;
433 -> 434 ;
435 [label=<Fwd IAT Min &le; 145.0<br/>gini = 0.5<br/>samples = 4<br/>value = [2, 2, 0]<br/>class = DoS>, fillcolor="#ffffff"] ;
433 -> 435 ;
436 [label=<gini = 0.444<br/>samples = 3<br/>value = [1, 2, 0]<br/>class = Scan>, fillcolor="#9cf2c0"] ;
435 -> 436 ;
437 [label=<gini = 0.0<br/>samples = 1<br/>value = [1, 0, 0]<br/>class = DoS>, fillcolor="#e58139"] ;
435 -> 437 ;
438 [label=<Flow IAT Mean &le; 132.0<br/>gini = 0.38<br/>samples = 51<br/>value = [13, 38, 0]<br/>class = Scan>, fillcolor="#7deeac"] ;
432 -> 438 ;
439 [label=<Flow Duration &le; 130.5<br/>gini = 0.432<br/>samples = 38<br/>value = [12, 26, 0]<br/>class = Scan>, fillcolor="#94f1bb"] ;
438 -> 439 ;
440 [label=<Flow IAT Min &le; 93.5<br/>gini = 0.408<br/>samples = 35<br/>value = [10, 25, 0]<br/>class = Scan>, fillcolor="#88efb3"] ;
439 -> 440 ;
441 [label=<gini = 0.5<br/>samples = 4<br/>value = [2, 2, 0]<br/>class = DoS>, fillcolor="#ffffff"] ;
440 -> 441 ;
442 [label=<Flow Duration &le; 98.5<br/>gini = 0.383<br/>samples = 31<br/>value = [8, 23, 0]<br/>class = Scan>, fillcolor="#7eeead"] ;
440 -> 442 ;
443 [label=<gini = 0.0<br/>samples = 4<br/>value = [0, 4, 0]<br/>class = Scan>, fillcolor="#39e581"] ;
442 -> 443 ;
444 [label=<Fwd Packets/s &le; 19904.932<br/>gini = 0.417<br/>samples = 27<br/>value = [8, 19, 0]<br/>class = Scan>, fillcolor="#8cf0b6"] ;
442 -> 444 ;
445 [label=<Fwd IAT Mean &le; 109.5<br/>gini = 0.393<br/>samples = 26<br/>value = [7, 19, 0]<br/>class = Scan>, fillcolor="#82efaf"] ;
444 -> 445 ;
446 [label=<gini = 0.0<br/>samples = 4<br/>value = [0, 4, 0]<br/>class = Scan>, fillcolor="#39e581"] ;
445 -> 446 ;
447 [label=<Flow IAT Max &le; 116.5<br/>gini = 0.434<br/>samples = 22<br/>value = [7, 15, 0]<br/>class = Scan>, fillcolor="#95f1bc"] ;
445 -> 447 ;
448 [label=<Flow Packets/s &le; 17316.342<br/>gini = 0.5<br/>samples = 4<br/>value = [2, 2, 0]<br/>class = DoS>, fillcolor="#ffffff"] ;
447 -> 448 ;
449 [label=<gini = 0.0<br/>samples = 1<br/>value = [1, 0, 0]<br/>class = DoS>, fillcolor="#e58139"] ;
448 -> 449 ;
450 [label=<Flow IAT Min &le; 113.5<br/>gini = 0.444<br/>samples = 3<br/>value = [1, 2, 0]<br/>class = Scan>, fillcolor="#9cf2c0"] ;
448 -> 450 ;
451 [label=<gini = 0.5<br/>samples = 2<br/>value = [1, 1, 0]<br/>class = DoS>, fillcolor="#ffffff"] ;
450 -> 451 ;
452 [label=<gini = 0.0<br/>samples = 1<br/>value = [0, 1, 0]<br/>class = Scan>, fillcolor="#39e581"] ;
450 -> 452 ;
453 [label=<Fwd Packets/s &le; 16461.185<br/>gini = 0.401<br/>samples = 18<br/>value = [5, 13, 0]<br/>class = Scan>, fillcolor="#85efb1"] ;
447 -> 453 ;
454 [label=<Fwd IAT Mean &le; 123.5<br/>gini = 0.459<br/>samples = 14<br/>value = [5, 9, 0]<br/>class = Scan>, fillcolor="#a7f3c7"] ;
453 -> 454 ;
455 [label=<Fwd IAT Total &le; 122.5<br/>gini = 0.444<br/>samples = 3<br/>value = [2, 1, 0]<br/>class = DoS>, fillcolor="#f2c09c"] ;
454 -> 455 ;
456 [label=<gini = 0.5<br/>samples = 2<br/>value = [1, 1, 0]<br/>class = DoS>, fillcolor="#ffffff"] ;
455 -> 456 ;
457 [label=<gini = 0.0<br/>samples = 1<br/>value = [1, 0, 0]<br/>class = DoS>, fillcolor="#e58139"] ;
455 -> 457 ;
458 [label=<Fwd Packets/s &le; 15938.532<br/>gini = 0.397<br/>samples = 11<br/>value = [3, 8, 0]<br/>class = Scan>, fillcolor="#83efb0"] ;
454 -> 458 ;
459 [label=<Fwd IAT Total &le; 129.5<br/>gini = 0.469<br/>samples = 8<br/>value = [3, 5, 0]<br/>class = Scan>, fillcolor="#b0f5cd"] ;
458 -> 459 ;
460 [label=<Flow Packets/s &le; 15564.438<br/>gini = 0.5<br/>samples = 4<br/>value = [2, 2, 0]<br/>class = DoS>, fillcolor="#ffffff"] ;
459 -> 460 ;
461 [label=<gini = 0.0<br/>samples = 1<br/>value = [1, 0, 0]<br/>class = DoS>, fillcolor="#e58139"] ;
460 -> 461 ;
462 [label=<Fwd IAT Min &le; 127.5<br/>gini = 0.444<br/>samples = 3<br/>value = [1, 2, 0]<br/>class = Scan>, fillcolor="#9cf2c0"] ;
460 -> 462 ;
463 [label=<gini = 0.5<br/>samples = 2<br/>value = [1, 1, 0]<br/>class = DoS>, fillcolor="#ffffff"] ;
462 -> 463 ;
464 [label=<gini = 0.0<br/>samples = 1<br/>value = [0, 1, 0]<br/>class = Scan>, fillcolor="#39e581"] ;
462 -> 464 ;
465 [label=<gini = 0.375<br/>samples = 4<br/>value = [1, 3, 0]<br/>class = Scan>, fillcolor="#7beeab"] ;
459 -> 465 ;
466 [label=<gini = 0.0<br/>samples = 3<br/>value = [0, 3, 0]<br/>class = Scan>, fillcolor="#39e581"] ;
458 -> 466 ;
467 [label=<gini = 0.0<br/>samples = 4<br/>value = [0, 4, 0]<br/>class = Scan>, fillcolor="#39e581"] ;
453 -> 467 ;
468 [label=<gini = 0.0<br/>samples = 1<br/>value = [1, 0, 0]<br/>class = DoS>, fillcolor="#e58139"] ;
444 -> 468 ;
469 [label=<gini = 0.444<br/>samples = 3<br/>value = [2, 1, 0]<br/>class = DoS>, fillcolor="#f2c09c"] ;
439 -> 469 ;
470 [label=<Flow IAT Mean &le; 137.5<br/>gini = 0.142<br/>samples = 13<br/>value = [1, 12, 0]<br/>class = Scan>, fillcolor="#49e78c"] ;
438 -> 470 ;
471 [label=<gini = 0.0<br/>samples = 7<br/>value = [0, 7, 0]<br/>class = Scan>, fillcolor="#39e581"] ;
470 -> 471 ;
472 [label=<Fwd IAT Max &le; 138.5<br/>gini = 0.278<br/>samples = 6<br/>value = [1, 5, 0]<br/>class = Scan>, fillcolor="#61ea9a"] ;
470 -> 472 ;
473 [label=<Init_Win_bytes_forward &le; 285.0<br/>gini = 0.5<br/>samples = 2<br/>value = [1, 1, 0]<br/>class = DoS>, fillcolor="#ffffff"] ;
472 -> 473 ;
474 [label=<gini = 0.0<br/>samples = 1<br/>value = [1, 0, 0]<br/>class = DoS>, fillcolor="#e58139"] ;
473 -> 474 ;
475 [label=<gini = 0.0<br/>samples = 1<br/>value = [0, 1, 0]<br/>class = Scan>, fillcolor="#39e581"] ;
473 -> 475 ;
476 [label=<gini = 0.0<br/>samples = 4<br/>value = [0, 4, 0]<br/>class = Scan>, fillcolor="#39e581"] ;
472 -> 476 ;
477 [label=<gini = 0.0<br/>samples = 1<br/>value = [1, 0, 0]<br/>class = DoS>, fillcolor="#e58139"] ;
429 -> 477 ;
478 [label=<Fwd IAT Min &le; 165.5<br/>gini = 0.17<br/>samples = 32<br/>value = [3, 29, 0]<br/>class = Scan>, fillcolor="#4de88e"] ;
426 -> 478 ;
479 [label=<Fwd IAT Mean &le; 161.5<br/>gini = 0.067<br/>samples = 29<br/>value = [1, 28, 0]<br/>class = Scan>, fillcolor="#40e686"] ;
478 -> 479 ;
480 [label=<gini = 0.0<br/>samples = 17<br/>value = [0, 17, 0]<br/>class = Scan>, fillcolor="#39e581"] ;
479 -> 480 ;
481 [label=<Fwd IAT Total &le; 162.5<br/>gini = 0.153<br/>samples = 12<br/>value = [1, 11, 0]<br/>class = Scan>, fillcolor="#4be78c"] ;
479 -> 481 ;
482 [label=<gini = 0.5<br/>samples = 2<br/>value = [1, 1, 0]<br/>class = DoS>, fillcolor="#ffffff"] ;
481 -> 482 ;
483 [label=<gini = 0.0<br/>samples = 10<br/>value = [0, 10, 0]<br/>class = Scan>, fillcolor="#39e581"] ;
481 -> 483 ;
484 [label=<Flow IAT Max &le; 166.5<br/>gini = 0.444<br/>samples = 3<br/>value = [2, 1, 0]<br/>class = DoS>, fillcolor="#f2c09c"] ;
478 -> 484 ;
485 [label=<gini = 0.5<br/>samples = 2<br/>value = [1, 1, 0]<br/>class = DoS>, fillcolor="#ffffff"] ;
484 -> 485 ;
486 [label=<gini = 0.0<br/>samples = 1<br/>value = [1, 0, 0]<br/>class = DoS>, fillcolor="#e58139"] ;
484 -> 486 ;
487 [label=<Flow IAT Min &le; 264.5<br/>gini = 0.05<br/>samples = 1287<br/>value = [33, 1254, 0]<br/>class = Scan>, fillcolor="#3ee684"] ;
417 -> 487 ;
488 [label=<Flow Duration &le; 185.5<br/>gini = 0.031<br/>samples = 1068<br/>value = [17, 1051, 0]<br/>class = Scan>, fillcolor="#3ce583"] ;
487 -> 488 ;
489 [label=<Fwd IAT Total &le; 180.5<br/>gini = 0.135<br/>samples = 55<br/>value = [4, 51, 0]<br/>class = Scan>, fillcolor="#49e78b"] ;
488 -> 489 ;
490 [label=<Fwd IAT Mean &le; 174.5<br/>gini = 0.045<br/>samples = 43<br/>value = [1, 42, 0]<br/>class = Scan>, fillcolor="#3ee684"] ;
489 -> 490 ;
491 [label=<Flow Packets/s &le; 11527.473<br/>gini = 0.083<br/>samples = 23<br/>value = [1, 22, 0]<br/>class = Scan>, fillcolor="#42e687"] ;
490 -> 491 ;
492 [label=<gini = 0.375<br/>samples = 4<br/>value = [1, 3, 0]<br/>class = Scan>, fillcolor="#7beeab"] ;
491 -> 492 ;
493 [label=<gini = 0.0<br/>samples = 19<br/>value = [0, 19, 0]<br/>class = Scan>, fillcolor="#39e581"] ;
491 -> 493 ;
494 [label=<gini = 0.0<br/>samples = 20<br/>value = [0, 20, 0]<br/>class = Scan>, fillcolor="#39e581"] ;
490 -> 494 ;
495 [label=<Flow Packets/s &le; 11019.367<br/>gini = 0.375<br/>samples = 12<br/>value = [3, 9, 0]<br/>class = Scan>, fillcolor="#7beeab"] ;
489 -> 495 ;
496 [label=<Fwd IAT Total &le; 183.5<br/>gini = 0.32<br/>samples = 10<br/>value = [2, 8, 0]<br/>class = Scan>, fillcolor="#6aeca0"] ;
495 -> 496 ;
497 [label=<gini = 0.0<br/>samples = 4<br/>value = [0, 4, 0]<br/>class = Scan>, fillcolor="#39e581"] ;
496 -> 497 ;
498 [label=<Fwd IAT Min &le; 184.5<br/>gini = 0.444<br/>samples = 6<br/>value = [2, 4, 0]<br/>class = Scan>, fillcolor="#9cf2c0"] ;
496 -> 498 ;
499 [label=<gini = 0.5<br/>samples = 2<br/>value = [1, 1, 0]<br/>class = DoS>, fillcolor="#ffffff"] ;
498 -> 499 ;
500 [label=<gini = 0.375<br/>samples = 4<br/>value = [1, 3, 0]<br/>class = Scan>, fillcolor="#7beeab"] ;
498 -> 500 ;
501 [label=<gini = 0.5<br/>samples = 2<br/>value = [1, 1, 0]<br/>class = DoS>, fillcolor="#ffffff"] ;
495 -> 501 ;
502 [label=<Flow IAT Min &le; 236.5<br/>gini = 0.025<br/>samples = 1013<br/>value = [13, 1000, 0]<br/>class = Scan>, fillcolor="#3ce583"] ;
488 -> 502 ;
503 [label=<Flow Duration &le; 214.5<br/>gini = 0.017<br/>samples = 827<br/>value = [7, 820, 0]<br/>class = Scan>, fillcolor="#3be582"] ;
502 -> 503 ;
504 [label=<Flow Packets/s &le; 10282.844<br/>gini = 0.039<br/>samples = 299<br/>value = [6, 293, 0]<br/>class = Scan>, fillcolor="#3de684"] ;
503 -> 504 ;
505 [label=<Flow IAT Mean &le; 195.5<br/>gini = 0.074<br/>samples = 156<br/>value = [6, 150, 0]<br/>class = Scan>, fillcolor="#41e686"] ;
504 -> 505 ;
506 [label=<gini = 0.245<br/>samples = 7<br/>value = [1, 6, 0]<br/>class = Scan>, fillcolor="#5ae996"] ;
505 -> 506 ;
507 [label=<Fwd IAT Mean &le; 213.5<br/>gini = 0.065<br/>samples = 149<br/>value = [5, 144, 0]<br/>class = Scan>, fillcolor="#40e685"] ;
505 -> 507 ;
508 [label=<Fwd IAT Max &le; 199.5<br/>gini = 0.056<br/>samples = 138<br/>value = [4, 134, 0]<br/>class = Scan>, fillcolor="#3fe685"] ;
507 -> 508 ;
509 [label=<gini = 0.0<br/>samples = 24<br/>value = [0, 24, 0]<br/>class = Scan>, fillcolor="#39e581"] ;
508 -> 509 ;
510 [label=<Flow Duration &le; 200.5<br/>gini = 0.068<br/>samples = 114<br/>value = [4, 110, 0]<br/>class = Scan>, fillcolor="#40e686"] ;
508 -> 510 ;
511 [label=<gini = 0.219<br/>samples = 8<br/>value = [1, 7, 0]<br/>class = Scan>, fillcolor="#55e993"] ;
510 -> 511 ;
512 [label=<Fwd IAT Max &le; 202.5<br/>gini = 0.055<br/>samples = 106<br/>value = [3, 103, 0]<br/>class = Scan>, fillcolor="#3fe685"] ;
510 -> 512 ;
513 [label=<Fwd IAT Mean &le; 201.5<br/>gini = 0.095<br/>samples = 20<br/>value = [1, 19, 0]<br/>class = Scan>, fillcolor="#43e688"] ;
512 -> 513 ;
514 [label=<gini = 0.0<br/>samples = 6<br/>value = [0, 6, 0]<br/>class = Scan>, fillcolor="#39e581"] ;
513 -> 514 ;
515 [label=<gini = 0.133<br/>samples = 14<br/>value = [1, 13, 0]<br/>class = Scan>, fillcolor="#48e78b"] ;
513 -> 515 ;
516 [label=<Flow Duration &le; 206.5<br/>gini = 0.045<br/>samples = 86<br/>value = [2, 84, 0]<br/>class = Scan>, fillcolor="#3ee684"] ;
512 -> 516 ;
517 [label=<gini = 0.0<br/>samples = 29<br/>value = [0, 29, 0]<br/>class = Scan>, fillcolor="#39e581"] ;
516 -> 517 ;
518 [label=<Fwd IAT Mean &le; 207.5<br/>gini = 0.068<br/>samples = 57<br/>value = [2, 55, 0]<br/>class = Scan>, fillcolor="#40e686"] ;
516 -> 518 ;
519 [label=<gini = 0.198<br/>samples = 9<br/>value = [1, 8, 0]<br/>class = Scan>, fillcolor="#52e891"] ;
518 -> 519 ;
520 [label=<Flow Packets/s &le; 9501.241<br/>gini = 0.041<br/>samples = 48<br/>value = [1, 47, 0]<br/>class = Scan>, fillcolor="#3de684"] ;
518 -> 520 ;
521 [label=<Fwd IAT Mean &le; 211.5<br/>gini = 0.087<br/>samples = 22<br/>value = [1, 21, 0]<br/>class = Scan>, fillcolor="#42e687"] ;
520 -> 521 ;
522 [label=<Init_Win_bytes_forward &le; 285.0<br/>gini = 0.18<br/>samples = 10<br/>value = [1, 9, 0]<br/>class = Scan>, fillcolor="#4fe88f"] ;
521 -> 522 ;
523 [label=<gini = 0.198<br/>samples = 9<br/>value = [1, 8, 0]<br/>class = Scan>, fillcolor="#52e891"] ;
522 -> 523 ;
524 [label=<gini = 0.0<br/>samples = 1<br/>value = [0, 1, 0]<br/>class = Scan>, fillcolor="#39e581"] ;
522 -> 524 ;
525 [label=<gini = 0.0<br/>samples = 12<br/>value = [0, 12, 0]<br/>class = Scan>, fillcolor="#39e581"] ;
521 -> 525 ;
526 [label=<gini = 0.0<br/>samples = 26<br/>value = [0, 26, 0]<br/>class = Scan>, fillcolor="#39e581"] ;
520 -> 526 ;
527 [label=<Init_Win_bytes_forward &le; 285.0<br/>gini = 0.165<br/>samples = 11<br/>value = [1, 10, 0]<br/>class = Scan>, fillcolor="#4de88e"] ;
507 -> 527 ;
528 [label=<gini = 0.18<br/>samples = 10<br/>value = [1, 9, 0]<br/>class = Scan>, fillcolor="#4fe88f"] ;
527 -> 528 ;
529 [label=<gini = 0.0<br/>samples = 1<br/>value = [0, 1, 0]<br/>class = Scan>, fillcolor="#39e581"] ;
527 -> 529 ;
530 [label=<gini = 0.0<br/>samples = 143<br/>value = [0, 143, 0]<br/>class = Scan>, fillcolor="#39e581"] ;
504 -> 530 ;
531 [label=<Flow IAT Min &le; 229.5<br/>gini = 0.004<br/>samples = 528<br/>value = [1, 527, 0]<br/>class = Scan>, fillcolor="#39e581"] ;
503 -> 531 ;
532 [label=<gini = 0.0<br/>samples = 370<br/>value = [0, 370, 0]<br/>class = Scan>, fillcolor="#39e581"] ;
531 -> 532 ;
533 [label=<Flow Duration &le; 230.5<br/>gini = 0.013<br/>samples = 158<br/>value = [1, 157, 0]<br/>class = Scan>, fillcolor="#3ae582"] ;
531 -> 533 ;
534 [label=<Init_Win_bytes_forward &le; 285.0<br/>gini = 0.062<br/>samples = 31<br/>value = [1, 30, 0]<br/>class = Scan>, fillcolor="#40e685"] ;
533 -> 534 ;
535 [label=<gini = 0.067<br/>samples = 29<br/>value = [1, 28, 0]<br/>class = Scan>, fillcolor="#40e686"] ;
534 -> 535 ;
536 [label=<gini = 0.0<br/>samples = 2<br/>value = [0, 2, 0]<br/>class = Scan>, fillcolor="#39e581"] ;
534 -> 536 ;
537 [label=<gini = 0.0<br/>samples = 127<br/>value = [0, 127, 0]<br/>class = Scan>, fillcolor="#39e581"] ;
533 -> 537 ;
538 [label=<Fwd IAT Mean &le; 242.5<br/>gini = 0.062<br/>samples = 186<br/>value = [6, 180, 0]<br/>class = Scan>, fillcolor="#40e685"] ;
502 -> 538 ;
539 [label=<Flow Duration &le; 239.5<br/>gini = 0.159<br/>samples = 69<br/>value = [6, 63, 0]<br/>class = Scan>, fillcolor="#4ce78d"] ;
538 -> 539 ;
540 [label=<Fwd IAT Max &le; 237.5<br/>gini = 0.1<br/>samples = 38<br/>value = [2, 36, 0]<br/>class = Scan>, fillcolor="#44e688"] ;
539 -> 540 ;
541 [label=<Init_Win_bytes_forward &le; 285.0<br/>gini = 0.245<br/>samples = 14<br/>value = [2, 12, 0]<br/>class = Scan>, fillcolor="#5ae996"] ;
540 -> 541 ;
542 [label=<gini = 0.26<br/>samples = 13<br/>value = [2, 11, 0]<br/>class = Scan>, fillcolor="#5dea98"] ;
541 -> 542 ;
543 [label=<gini = 0.0<br/>samples = 1<br/>value = [0, 1, 0]<br/>class = Scan>, fillcolor="#39e581"] ;
541 -> 543 ;
544 [label=<gini = 0.0<br/>samples = 24<br/>value = [0, 24, 0]<br/>class = Scan>, fillcolor="#39e581"] ;
540 -> 544 ;
545 [label=<Fwd IAT Min &le; 240.5<br/>gini = 0.225<br/>samples = 31<br/>value = [4, 27, 0]<br/>class = Scan>, fillcolor="#56e994"] ;
539 -> 545 ;
546 [label=<gini = 0.375<br/>samples = 8<br/>value = [2, 6, 0]<br/>class = Scan>, fillcolor="#7beeab"] ;
545 -> 546 ;
547 [label=<Fwd IAT Mean &le; 241.5<br/>gini = 0.159<br/>samples = 23<br/>value = [2, 21, 0]<br/>class = Scan>, fillcolor="#4ce78d"] ;
545 -> 547 ;
548 [label=<Init_Win_bytes_forward &le; 285.0<br/>gini = 0.198<br/>samples = 9<br/>value = [1, 8, 0]<br/>class = Scan>, fillcolor="#52e891"] ;
547 -> 548 ;
549 [label=<gini = 0.219<br/>samples = 8<br/>value = [1, 7, 0]<br/>class = Scan>, fillcolor="#55e993"] ;
548 -> 549 ;
550 [label=<gini = 0.0<br/>samples = 1<br/>value = [0, 1, 0]<br/>class = Scan>, fillcolor="#39e581"] ;
548 -> 550 ;
551 [label=<gini = 0.133<br/>samples = 14<br/>value = [1, 13, 0]<br/>class = Scan>, fillcolor="#48e78b"] ;
547 -> 551 ;
552 [label=<gini = 0.0<br/>samples = 117<br/>value = [0, 117, 0]<br/>class = Scan>, fillcolor="#39e581"] ;
538 -> 552 ;
553 [label=<Fwd Packets/s &le; 2585.651<br/>gini = 0.135<br/>samples = 219<br/>value = [16, 203, 0]<br/>class = Scan>, fillcolor="#49e78b"] ;
487 -> 553 ;
554 [label=<Flow IAT Min &le; 857.0<br/>gini = 0.037<br/>samples = 53<br/>value = [1, 52, 0]<br/>class = Scan>, fillcolor="#3de683"] ;
553 -> 554 ;
555 [label=<gini = 0.0<br/>samples = 34<br/>value = [0, 34, 0]<br/>class = Scan>, fillcolor="#39e581"] ;
554 -> 555 ;
556 [label=<Fwd Packets/s &le; 2325.594<br/>gini = 0.1<br/>samples = 19<br/>value = [1, 18, 0]<br/>class = Scan>, fillcolor="#44e688"] ;
554 -> 556 ;
557 [label=<gini = 0.0<br/>samples = 18<br/>value = [0, 18, 0]<br/>class = Scan>, fillcolor="#39e581"] ;
556 -> 557 ;
558 [label=<gini = 0.0<br/>samples = 1<br/>value = [1, 0, 0]<br/>class = DoS>, fillcolor="#e58139"] ;
556 -> 558 ;
559 [label=<Fwd IAT Mean &le; 771.0<br/>gini = 0.164<br/>samples = 166<br/>value = [15, 151, 0]<br/>class = Scan>, fillcolor="#4de88e"] ;
553 -> 559 ;
560 [label=<Flow IAT Max &le; 593.5<br/>gini = 0.155<br/>samples = 165<br/>value = [14, 151, 0]<br/>class = Scan>, fillcolor="#4be78d"] ;
559 -> 560 ;
561 [label=<Flow IAT Max &le; 271.5<br/>gini = 0.128<br/>samples = 146<br/>value = [10, 136, 0]<br/>class = Scan>, fillcolor="#48e78a"] ;
560 -> 561 ;
562 [label=<Fwd IAT Mean &le; 269.5<br/>gini = 0.194<br/>samples = 46<br/>value = [5, 41, 0]<br/>class = Scan>, fillcolor="#51e890"] ;
561 -> 562 ;
563 [label=<Flow IAT Min &le; 267.5<br/>gini = 0.136<br/>samples = 41<br/>value = [3, 38, 0]<br/>class = Scan>, fillcolor="#49e78b"] ;
562 -> 563 ;
564 [label=<Flow IAT Min &le; 265.5<br/>gini = 0.17<br/>samples = 32<br/>value = [3, 29, 0]<br/>class = Scan>, fillcolor="#4de88e"] ;
563 -> 564 ;
565 [label=<gini = 0.219<br/>samples = 8<br/>value = [1, 7, 0]<br/>class = Scan>, fillcolor="#55e993"] ;
564 -> 565 ;
566 [label=<Flow IAT Max &le; 266.5<br/>gini = 0.153<br/>samples = 24<br/>value = [2, 22, 0]<br/>class = Scan>, fillcolor="#4be78c"] ;
564 -> 566 ;
567 [label=<Init_Win_bytes_forward &le; 285.0<br/>gini = 0.124<br/>samples = 15<br/>value = [1, 14, 0]<br/>class = Scan>, fillcolor="#47e78a"] ;
566 -> 567 ;
568 [label=<gini = 0.133<br/>samples = 14<br/>value = [1, 13, 0]<br/>class = Scan>, fillcolor="#48e78b"] ;
567 -> 568 ;
569 [label=<gini = 0.0<br/>samples = 1<br/>value = [0, 1, 0]<br/>class = Scan>, fillcolor="#39e581"] ;
567 -> 569 ;
570 [label=<gini = 0.198<br/>samples = 9<br/>value = [1, 8, 0]<br/>class = Scan>, fillcolor="#52e891"] ;
566 -> 570 ;
571 [label=<gini = 0.0<br/>samples = 9<br/>value = [0, 9, 0]<br/>class = Scan>, fillcolor="#39e581"] ;
563 -> 571 ;
572 [label=<Fwd IAT Total &le; 270.5<br/>gini = 0.48<br/>samples = 5<br/>value = [2, 3, 0]<br/>class = Scan>, fillcolor="#bdf6d5"] ;
562 -> 572 ;
573 [label=<gini = 0.444<br/>samples = 3<br/>value = [1, 2, 0]<br/>class = Scan>, fillcolor="#9cf2c0"] ;
572 -> 573 ;
574 [label=<gini = 0.5<br/>samples = 2<br/>value = [1, 1, 0]<br/>class = DoS>, fillcolor="#ffffff"] ;
572 -> 574 ;
575 [label=<Fwd IAT Min &le; 314.0<br/>gini = 0.095<br/>samples = 100<br/>value = [5, 95, 0]<br/>class = Scan>, fillcolor="#43e688"] ;
561 -> 575 ;
576 [label=<gini = 0.0<br/>samples = 42<br/>value = [0, 42, 0]<br/>class = Scan>, fillcolor="#39e581"] ;
575 -> 576 ;
577 [label=<Flow Duration &le; 315.5<br/>gini = 0.158<br/>samples = 58<br/>value = [5, 53, 0]<br/>class = Scan>, fillcolor="#4ce78d"] ;
575 -> 577 ;
578 [label=<gini = 0.444<br/>samples = 3<br/>value = [1, 2, 0]<br/>class = Scan>, fillcolor="#9cf2c0"] ;
577 -> 578 ;
579 [label=<Flow Packets/s &le; 4202.145<br/>gini = 0.135<br/>samples = 55<br/>value = [4, 51, 0]<br/>class = Scan>, fillcolor="#49e78b"] ;
577 -> 579 ;
580 [label=<gini = 0.0<br/>samples = 17<br/>value = [0, 17, 0]<br/>class = Scan>, fillcolor="#39e581"] ;
579 -> 580 ;
581 [label=<Flow IAT Mean &le; 467.0<br/>gini = 0.188<br/>samples = 38<br/>value = [4, 34, 0]<br/>class = Scan>, fillcolor="#50e890"] ;
579 -> 581 ;
582 [label=<Fwd IAT Total &le; 418.5<br/>gini = 0.149<br/>samples = 37<br/>value = [3, 34, 0]<br/>class = Scan>, fillcolor="#4ae78c"] ;
581 -> 582 ;
583 [label=<Flow IAT Max &le; 408.5<br/>gini = 0.185<br/>samples = 29<br/>value = [3, 26, 0]<br/>class = Scan>, fillcolor="#50e890"] ;
582 -> 583 ;
584 [label=<Flow Packets/s &le; 5788.821<br/>gini = 0.133<br/>samples = 28<br/>value = [2, 26, 0]<br/>class = Scan>, fillcolor="#48e78b"] ;
583 -> 584 ;
585 [label=<gini = 0.0<br/>samples = 8<br/>value = [0, 8, 0]<br/>class = Scan>, fillcolor="#39e581"] ;
584 -> 585 ;
586 [label=<Fwd IAT Mean &le; 342.5<br/>gini = 0.18<br/>samples = 20<br/>value = [2, 18, 0]<br/>class = Scan>, fillcolor="#4fe88f"] ;
584 -> 586 ;
587 [label=<Flow IAT Max &le; 321.5<br/>gini = 0.1<br/>samples = 19<br/>value = [1, 18, 0]<br/>class = Scan>, fillcolor="#44e688"] ;
586 -> 587 ;
588 [label=<Fwd IAT Min &le; 320.0<br/>gini = 0.198<br/>samples = 9<br/>value = [1, 8, 0]<br/>class = Scan>, fillcolor="#52e891"] ;
587 -> 588 ;
589 [label=<gini = 0.0<br/>samples = 7<br/>value = [0, 7, 0]<br/>class = Scan>, fillcolor="#39e581"] ;
588 -> 589 ;
590 [label=<gini = 0.5<br/>samples = 2<br/>value = [1, 1, 0]<br/>class = DoS>, fillcolor="#ffffff"] ;
588 -> 590 ;
591 [label=<gini = 0.0<br/>samples = 10<br/>value = [0, 10, 0]<br/>class = Scan>, fillcolor="#39e581"] ;
587 -> 591 ;
592 [label=<gini = 0.0<br/>samples = 1<br/>value = [1, 0, 0]<br/>class = DoS>, fillcolor="#e58139"] ;
586 -> 592 ;
593 [label=<gini = 0.0<br/>samples = 1<br/>value = [1, 0, 0]<br/>class = DoS>, fillcolor="#e58139"] ;
583 -> 593 ;
594 [label=<gini = 0.0<br/>samples = 8<br/>value = [0, 8, 0]<br/>class = Scan>, fillcolor="#39e581"] ;
582 -> 594 ;
595 [label=<gini = 0.0<br/>samples = 1<br/>value = [1, 0, 0]<br/>class = DoS>, fillcolor="#e58139"] ;
581 -> 595 ;
596 [label=<Flow Packets/s &le; 3207.701<br/>gini = 0.332<br/>samples = 19<br/>value = [4, 15, 0]<br/>class = Scan>, fillcolor="#6eeca3"] ;
560 -> 596 ;
597 [label=<Flow Packets/s &le; 2994.072<br/>gini = 0.219<br/>samples = 16<br/>value = [2, 14, 0]<br/>class = Scan>, fillcolor="#55e993"] ;
596 -> 597 ;
598 [label=<Flow IAT Min &le; 684.5<br/>gini = 0.32<br/>samples = 10<br/>value = [2, 8, 0]<br/>class = Scan>, fillcolor="#6aeca0"] ;
597 -> 598 ;
599 [label=<gini = 0.0<br/>samples = 1<br/>value = [1, 0, 0]<br/>class = DoS>, fillcolor="#e58139"] ;
598 -> 599 ;
600 [label=<Flow IAT Max &le; 710.5<br/>gini = 0.198<br/>samples = 9<br/>value = [1, 8, 0]<br/>class = Scan>, fillcolor="#52e891"] ;
598 -> 600 ;
601 [label=<Fwd IAT Min &le; 706.0<br/>gini = 0.375<br/>samples = 4<br/>value = [1, 3, 0]<br/>class = Scan>, fillcolor="#7beeab"] ;
600 -> 601 ;
602 [label=<gini = 0.0<br/>samples = 3<br/>value = [0, 3, 0]<br/>class = Scan>, fillcolor="#39e581"] ;
601 -> 602 ;
603 [label=<gini = 0.0<br/>samples = 1<br/>value = [1, 0, 0]<br/>class = DoS>, fillcolor="#e58139"] ;
601 -> 603 ;
604 [label=<gini = 0.0<br/>samples = 5<br/>value = [0, 5, 0]<br/>class = Scan>, fillcolor="#39e581"] ;
600 -> 604 ;
605 [label=<gini = 0.0<br/>samples = 6<br/>value = [0, 6, 0]<br/>class = Scan>, fillcolor="#39e581"] ;
597 -> 605 ;
606 [label=<Fwd IAT Min &le; 600.0<br/>gini = 0.444<br/>samples = 3<br/>value = [2, 1, 0]<br/>class = DoS>, fillcolor="#f2c09c"] ;
596 -> 606 ;
607 [label=<gini = 0.0<br/>samples = 1<br/>value = [1, 0, 0]<br/>class = DoS>, fillcolor="#e58139"] ;
606 -> 607 ;
608 [label=<Flow IAT Min &le; 613.0<br/>gini = 0.5<br/>samples = 2<br/>value = [1, 1, 0]<br/>class = DoS>, fillcolor="#ffffff"] ;
606 -> 608 ;
609 [label=<gini = 0.0<br/>samples = 1<br/>value = [0, 1, 0]<br/>class = Scan>, fillcolor="#39e581"] ;
608 -> 609 ;
610 [label=<gini = 0.0<br/>samples = 1<br/>value = [1, 0, 0]<br/>class = DoS>, fillcolor="#e58139"] ;
608 -> 610 ;
611 [label=<gini = 0.0<br/>samples = 1<br/>value = [1, 0, 0]<br/>class = DoS>, fillcolor="#e58139"] ;
559 -> 611 ;
612 [label=<Flow IAT Min &le; 1053.5<br/>gini = 0.005<br/>samples = 8817<br/>value = [24, 8793, 0]<br/>class = Scan>, fillcolor="#3ae581"] ;
164 -> 612 ;
613 [label=<Fwd Header Length &le; 62.0<br/>gini = 0.004<br/>samples = 8798<br/>value = [19, 8779, 0]<br/>class = Scan>, fillcolor="#39e581"] ;
612 -> 613 ;
614 [label=<gini = 0.0<br/>samples = 1<br/>value = [1, 0, 0]<br/>class = DoS>, fillcolor="#e58139"] ;
613 -> 614 ;
615 [label=<Fwd IAT Min &le; 50.5<br/>gini = 0.004<br/>samples = 8797<br/>value = [18, 8779, 0]<br/>class = Scan>, fillcolor="#39e581"] ;
613 -> 615 ;
616 [label=<Fwd Header Length &le; 128.0<br/>gini = 0.32<br/>samples = 5<br/>value = [1, 4, 0]<br/>class = Scan>, fillcolor="#6aeca0"] ;
615 -> 616 ;
617 [label=<gini = 0.0<br/>samples = 1<br/>value = [1, 0, 0]<br/>class = DoS>, fillcolor="#e58139"] ;
616 -> 617 ;
618 [label=<gini = 0.0<br/>samples = 4<br/>value = [0, 4, 0]<br/>class = Scan>, fillcolor="#39e581"] ;
616 -> 618 ;
619 [label=<Flow IAT Min &le; 1045.5<br/>gini = 0.004<br/>samples = 8792<br/>value = [17, 8775, 0]<br/>class = Scan>, fillcolor="#39e581"] ;
615 -> 619 ;
620 [label=<Flow IAT Min &le; 1006.5<br/>gini = 0.004<br/>samples = 8783<br/>value = [16, 8767, 0]<br/>class = Scan>, fillcolor="#39e581"] ;
619 -> 620 ;
621 [label=<Flow Duration &le; 945.5<br/>gini = 0.002<br/>samples = 8087<br/>value = [10, 8077, 0]<br/>class = Scan>, fillcolor="#39e581"] ;
620 -> 621 ;
622 [label=<Fwd Packets/s &le; 2126.529<br/>gini = 0.028<br/>samples = 212<br/>value = [3, 209, 0]<br/>class = Scan>, fillcolor="#3ce583"] ;
621 -> 622 ;
623 [label=<Init_Win_bytes_forward &le; 257.5<br/>gini = 0.082<br/>samples = 70<br/>value = [3, 67, 0]<br/>class = Scan>, fillcolor="#42e687"] ;
622 -> 623 ;
624 [label=<gini = 0.0<br/>samples = 43<br/>value = [0, 43, 0]<br/>class = Scan>, fillcolor="#39e581"] ;
623 -> 624 ;
625 [label=<Init_Win_bytes_forward &le; 269.0<br/>gini = 0.198<br/>samples = 27<br/>value = [3, 24, 0]<br/>class = Scan>, fillcolor="#52e891"] ;
623 -> 625 ;
626 [label=<gini = 0.0<br/>samples = 3<br/>value = [3, 0, 0]<br/>class = DoS>, fillcolor="#e58139"] ;
625 -> 626 ;
627 [label=<gini = 0.0<br/>samples = 24<br/>value = [0, 24, 0]<br/>class = Scan>, fillcolor="#39e581"] ;
625 -> 627 ;
628 [label=<gini = 0.0<br/>samples = 142<br/>value = [0, 142, 0]<br/>class = Scan>, fillcolor="#39e581"] ;
622 -> 628 ;
629 [label=<Fwd IAT Min &le; 144.5<br/>gini = 0.002<br/>samples = 7875<br/>value = [7, 7868, 0]<br/>class = Scan>, fillcolor="#39e581"] ;
621 -> 629 ;
630 [label=<Total Fwd Packets &le; 3.5<br/>gini = 0.029<br/>samples = 138<br/>value = [2, 136, 0]<br/>class = Scan>, fillcolor="#3ce583"] ;
629 -> 630 ;
631 [label=<gini = 0.0<br/>samples = 2<br/>value = [2, 0, 0]<br/>class = DoS>, fillcolor="#e58139"] ;
630 -> 631 ;
632 [label=<gini = 0.0<br/>samples = 136<br/>value = [0, 136, 0]<br/>class = Scan>, fillcolor="#39e581"] ;
630 -> 632 ;
633 [label=<Fwd IAT Total &le; 971.5<br/>gini = 0.001<br/>samples = 7737<br/>value = [5, 7732, 0]<br/>class = Scan>, fillcolor="#39e581"] ;
629 -> 633 ;
634 [label=<Init_Win_bytes_forward &le; 257.5<br/>gini = 0.007<br/>samples = 892<br/>value = [3, 889, 0]<br/>class = Scan>, fillcolor="#3ae581"] ;
633 -> 634 ;
635 [label=<gini = 0.0<br/>samples = 578<br/>value = [0, 578, 0]<br/>class = Scan>, fillcolor="#39e581"] ;
634 -> 635 ;
636 [label=<Init_Win_bytes_forward &le; 269.0<br/>gini = 0.019<br/>samples = 314<br/>value = [3, 311, 0]<br/>class = Scan>, fillcolor="#3be582"] ;
634 -> 636 ;
637 [label=<gini = 0.0<br/>samples = 1<br/>value = [1, 0, 0]<br/>class = DoS>, fillcolor="#e58139"] ;
636 -> 637 ;
638 [label=<Flow IAT Max &le; 970.5<br/>gini = 0.013<br/>samples = 313<br/>value = [2, 311, 0]<br/>class = Scan>, fillcolor="#3ae582"] ;
636 -> 638 ;
639 [label=<Fwd IAT Total &le; 961.5<br/>gini = 0.007<br/>samples = 284<br/>value = [1, 283, 0]<br/>class = Scan>, fillcolor="#3ae581"] ;
638 -> 639 ;
640 [label=<Fwd IAT Max &le; 960.5<br/>gini = 0.015<br/>samples = 132<br/>value = [1, 131, 0]<br/>class = Scan>, fillcolor="#3be582"] ;
639 -> 640 ;
641 [label=<gini = 0.0<br/>samples = 116<br/>value = [0, 116, 0]<br/>class = Scan>, fillcolor="#39e581"] ;
640 -> 641 ;
642 [label=<gini = 0.117<br/>samples = 16<br/>value = [1, 15, 0]<br/>class = Scan>, fillcolor="#46e789"] ;
640 -> 642 ;
643 [label=<gini = 0.0<br/>samples = 152<br/>value = [0, 152, 0]<br/>class = Scan>, fillcolor="#39e581"] ;
639 -> 643 ;
644 [label=<Init_Win_bytes_forward &le; 285.0<br/>gini = 0.067<br/>samples = 29<br/>value = [1, 28, 0]<br/>class = Scan>, fillcolor="#40e686"] ;
638 -> 644 ;
645 [label=<gini = 0.069<br/>samples = 28<br/>value = [1, 27, 0]<br/>class = Scan>, fillcolor="#40e686"] ;
644 -> 645 ;
646 [label=<gini = 0.0<br/>samples = 1<br/>value = [0, 1, 0]<br/>class = Scan>, fillcolor="#39e581"] ;
644 -> 646 ;
647 [label=<Init_Win_bytes_forward &le; 257.5<br/>gini = 0.001<br/>samples = 6845<br/>value = [2, 6843, 0]<br/>class = Scan>, fillcolor="#39e581"] ;
633 -> 647 ;
648 [label=<gini = 0.0<br/>samples = 4257<br/>value = [0, 4257, 0]<br/>class = Scan>, fillcolor="#39e581"] ;
647 -> 648 ;
649 [label=<Init_Win_bytes_forward &le; 269.0<br/>gini = 0.002<br/>samples = 2588<br/>value = [2, 2586, 0]<br/>class = Scan>, fillcolor="#39e581"] ;
647 -> 649 ;
650 [label=<gini = 0.0<br/>samples = 1<br/>value = [1, 0, 0]<br/>class = DoS>, fillcolor="#e58139"] ;
649 -> 650 ;
651 [label=<Flow IAT Min &le; 993.5<br/>gini = 0.001<br/>samples = 2587<br/>value = [1, 2586, 0]<br/>class = Scan>, fillcolor="#39e581"] ;
649 -> 651 ;
652 [label=<gini = 0.0<br/>samples = 1851<br/>value = [0, 1851, 0]<br/>class = Scan>, fillcolor="#39e581"] ;
651 -> 652 ;
653 [label=<Fwd Packets/s &le; 2011.061<br/>gini = 0.003<br/>samples = 736<br/>value = [1, 735, 0]<br/>class = Scan>, fillcolor="#39e581"] ;
651 -> 653 ;
654 [label=<gini = 0.0<br/>samples = 654<br/>value = [0, 654, 0]<br/>class = Scan>, fillcolor="#39e581"] ;
653 -> 654 ;
655 [label=<Init_Win_bytes_forward &le; 285.0<br/>gini = 0.024<br/>samples = 82<br/>value = [1, 81, 0]<br/>class = Scan>, fillcolor="#3be583"] ;
653 -> 655 ;
656 [label=<gini = 0.024<br/>samples = 81<br/>value = [1, 80, 0]<br/>class = Scan>, fillcolor="#3be583"] ;
655 -> 656 ;
657 [label=<gini = 0.0<br/>samples = 1<br/>value = [0, 1, 0]<br/>class = Scan>, fillcolor="#39e581"] ;
655 -> 657 ;
658 [label=<Init_Win_bytes_forward &le; 257.5<br/>gini = 0.017<br/>samples = 696<br/>value = [6, 690, 0]<br/>class = Scan>, fillcolor="#3be582"] ;
620 -> 658 ;
659 [label=<gini = 0.0<br/>samples = 391<br/>value = [0, 391, 0]<br/>class = Scan>, fillcolor="#39e581"] ;
658 -> 659 ;
660 [label=<Init_Win_bytes_forward &le; 269.0<br/>gini = 0.039<br/>samples = 305<br/>value = [6, 299, 0]<br/>class = Scan>, fillcolor="#3de684"] ;
658 -> 660 ;
661 [label=<gini = 0.0<br/>samples = 6<br/>value = [6, 0, 0]<br/>class = DoS>, fillcolor="#e58139"] ;
660 -> 661 ;
662 [label=<gini = 0.0<br/>samples = 299<br/>value = [0, 299, 0]<br/>class = Scan>, fillcolor="#39e581"] ;
660 -> 662 ;
663 [label=<Flow IAT Min &le; 1046.5<br/>gini = 0.198<br/>samples = 9<br/>value = [1, 8, 0]<br/>class = Scan>, fillcolor="#52e891"] ;
619 -> 663 ;
664 [label=<gini = 0.0<br/>samples = 1<br/>value = [1, 0, 0]<br/>class = DoS>, fillcolor="#e58139"] ;
663 -> 664 ;
665 [label=<gini = 0.0<br/>samples = 8<br/>value = [0, 8, 0]<br/>class = Scan>, fillcolor="#39e581"] ;
663 -> 665 ;
666 [label=<Init_Win_bytes_forward &le; 253.5<br/>gini = 0.388<br/>samples = 19<br/>value = [5, 14, 0]<br/>class = Scan>, fillcolor="#80eeae"] ;
612 -> 666 ;
667 [label=<gini = 0.0<br/>samples = 9<br/>value = [0, 9, 0]<br/>class = Scan>, fillcolor="#39e581"] ;
666 -> 667 ;
668 [label=<Fwd IAT Mean &le; 1061.0<br/>gini = 0.5<br/>samples = 10<br/>value = [5, 5, 0]<br/>class = DoS>, fillcolor="#ffffff"] ;
666 -> 668 ;
669 [label=<gini = 0.0<br/>samples = 3<br/>value = [3, 0, 0]<br/>class = DoS>, fillcolor="#e58139"] ;
668 -> 669 ;
670 [label=<Init_Win_bytes_forward &le; 269.0<br/>gini = 0.408<br/>samples = 7<br/>value = [2, 5, 0]<br/>class = Scan>, fillcolor="#88efb3"] ;
668 -> 670 ;
671 [label=<gini = 0.0<br/>samples = 1<br/>value = [1, 0, 0]<br/>class = DoS>, fillcolor="#e58139"] ;
670 -> 671 ;
672 [label=<Fwd IAT Max &le; 1080.0<br/>gini = 0.278<br/>samples = 6<br/>value = [1, 5, 0]<br/>class = Scan>, fillcolor="#61ea9a"] ;
670 -> 672 ;
673 [label=<Fwd Packets/s &le; 1869.165<br/>gini = 0.444<br/>samples = 3<br/>value = [1, 2, 0]<br/>class = Scan>, fillcolor="#9cf2c0"] ;
672 -> 673 ;
674 [label=<gini = 0.0<br/>samples = 1<br/>value = [1, 0, 0]<br/>class = DoS>, fillcolor="#e58139"] ;
673 -> 674 ;
675 [label=<gini = 0.0<br/>samples = 2<br/>value = [0, 2, 0]<br/>class = Scan>, fillcolor="#39e581"] ;
673 -> 675 ;
676 [label=<gini = 0.0<br/>samples = 3<br/>value = [0, 3, 0]<br/>class = Scan>, fillcolor="#39e581"] ;
672 -> 676 ;
677 [label=<Fwd IAT Min &le; 377.5<br/>gini = 0.202<br/>samples = 605<br/>value = [538, 48, 19]<br/>class = DoS>, fillcolor="#e89051"] ;
53 -> 677 ;
678 [label=<Packet Length Std &le; 8.752<br/>gini = 0.019<br/>samples = 509<br/>value = [504, 3, 2]<br/>class = DoS>, fillcolor="#e5823b"] ;
677 -> 678 ;
679 [label=<Fwd IAT Min &le; 297.0<br/>gini = 0.012<br/>samples = 507<br/>value = [504, 3, 0]<br/>class = DoS>, fillcolor="#e5823a"] ;
678 -> 679 ;
680 [label=<Init_Win_bytes_forward &le; 414.0<br/>gini = 0.004<br/>samples = 493<br/>value = [492, 1, 0]<br/>class = DoS>, fillcolor="#e58139"] ;
679 -> 680 ;
681 [label=<Init_Win_bytes_forward &le; 403.0<br/>gini = 0.105<br/>samples = 18<br/>value = [17, 1, 0]<br/>class = DoS>, fillcolor="#e78845"] ;
680 -> 681 ;
682 [label=<gini = 0.0<br/>samples = 17<br/>value = [17, 0, 0]<br/>class = DoS>, fillcolor="#e58139"] ;
681 -> 682 ;
683 [label=<gini = 0.0<br/>samples = 1<br/>value = [0, 1, 0]<br/>class = Scan>, fillcolor="#39e581"] ;
681 -> 683 ;
684 [label=<gini = 0.0<br/>samples = 475<br/>value = [475, 0, 0]<br/>class = DoS>, fillcolor="#e58139"] ;
680 -> 684 ;
685 [label=<PSH Flag Count &le; 0.5<br/>gini = 0.245<br/>samples = 14<br/>value = [12, 2, 0]<br/>class = DoS>, fillcolor="#e9965a"] ;
679 -> 685 ;
686 [label=<gini = 0.0<br/>samples = 12<br/>value = [12, 0, 0]<br/>class = DoS>, fillcolor="#e58139"] ;
685 -> 686 ;
687 [label=<gini = 0.0<br/>samples = 2<br/>value = [0, 2, 0]<br/>class = Scan>, fillcolor="#39e581"] ;
685 -> 687 ;
688 [label=<gini = 0.0<br/>samples = 2<br/>value = [0, 0, 2]<br/>class = Benign>, fillcolor="#8139e5"] ;
678 -> 688 ;
689 [label=<PSH Flag Count &le; 0.5<br/>gini = 0.623<br/>samples = 96<br/>value = [34, 45, 17]<br/>class = Scan>, fillcolor="#dcfae9"] ;
677 -> 689 ;
690 [label=<Init_Win_bytes_forward &le; 445.0<br/>gini = 0.056<br/>samples = 35<br/>value = [34, 1, 0]<br/>class = DoS>, fillcolor="#e6853f"] ;
689 -> 690 ;
691 [label=<Init_Win_bytes_forward &le; 384.5<br/>gini = 0.444<br/>samples = 3<br/>value = [2, 1, 0]<br/>class = DoS>, fillcolor="#f2c09c"] ;
690 -> 691 ;
692 [label=<gini = 0.0<br/>samples = 2<br/>value = [2, 0, 0]<br/>class = DoS>, fillcolor="#e58139"] ;
691 -> 692 ;
693 [label=<gini = 0.0<br/>samples = 1<br/>value = [0, 1, 0]<br/>class = Scan>, fillcolor="#39e581"] ;
691 -> 693 ;
694 [label=<gini = 0.0<br/>samples = 32<br/>value = [32, 0, 0]<br/>class = DoS>, fillcolor="#e58139"] ;
690 -> 694 ;
695 [label=<Bwd IAT Total &le; 272.5<br/>gini = 0.402<br/>samples = 61<br/>value = [0, 44, 17]<br/>class = Scan>, fillcolor="#86efb2"] ;
689 -> 695 ;
696 [label=<gini = 0.0<br/>samples = 44<br/>value = [0, 44, 0]<br/>class = Scan>, fillcolor="#39e581"] ;
695 -> 696 ;
697 [label=<gini = 0.0<br/>samples = 17<br/>value = [0, 0, 17]<br/>class = Benign>, fillcolor="#8139e5"] ;
695 -> 697 ;
698 [label=<URG Flag Count &le; 0.5<br/>gini = 0.34<br/>samples = 1133<br/>value = [887, 246, 0]<br/>class = DoS>, fillcolor="#eca470"] ;
52 -> 698 ;
699 [label=<Fwd Header Length &le; 68.0<br/>gini = 0.099<br/>samples = 936<br/>value = [887, 49, 0]<br/>class = DoS>, fillcolor="#e68844"] ;
698 -> 699 ;
700 [label=<Fwd Packets/s &le; 1803.428<br/>gini = 0.037<br/>samples = 904<br/>value = [887, 17, 0]<br/>class = DoS>, fillcolor="#e5833d"] ;
699 -> 700 ;
701 [label=<Fwd IAT Mean &le; 2017.0<br/>gini = 0.029<br/>samples = 892<br/>value = [879, 13, 0]<br/>class = DoS>, fillcolor="#e5833c"] ;
700 -> 701 ;
702 [label=<Flow Duration &le; 1942.5<br/>gini = 0.096<br/>samples = 258<br/>value = [245, 13, 0]<br/>class = DoS>, fillcolor="#e68844"] ;
701 -> 702 ;
703 [label=<Init_Win_bytes_forward &le; 272.5<br/>gini = 0.05<br/>samples = 236<br/>value = [230, 6, 0]<br/>class = DoS>, fillcolor="#e6843e"] ;
702 -> 703 ;
704 [label=<Fwd IAT Total &le; 1248.0<br/>gini = 0.01<br/>samples = 202<br/>value = [201, 1, 0]<br/>class = DoS>, fillcolor="#e5823a"] ;
703 -> 704 ;
705 [label=<Fwd IAT Max &le; 1244.5<br/>gini = 0.05<br/>samples = 39<br/>value = [38, 1, 0]<br/>class = DoS>, fillcolor="#e6843e"] ;
704 -> 705 ;
706 [label=<gini = 0.0<br/>samples = 37<br/>value = [37, 0, 0]<br/>class = DoS>, fillcolor="#e58139"] ;
705 -> 706 ;
707 [label=<Init_Win_bytes_forward &le; 257.5<br/>gini = 0.5<br/>samples = 2<br/>value = [1, 1, 0]<br/>class = DoS>, fillcolor="#ffffff"] ;
705 -> 707 ;
708 [label=<gini = 0.0<br/>samples = 1<br/>value = [0, 1, 0]<br/>class = Scan>, fillcolor="#39e581"] ;
707 -> 708 ;
709 [label=<gini = 0.0<br/>samples = 1<br/>value = [1, 0, 0]<br/>class = DoS>, fillcolor="#e58139"] ;
707 -> 709 ;
710 [label=<gini = 0.0<br/>samples = 163<br/>value = [163, 0, 0]<br/>class = DoS>, fillcolor="#e58139"] ;
704 -> 710 ;
711 [label=<Flow Duration &le; 1256.0<br/>gini = 0.251<br/>samples = 34<br/>value = [29, 5, 0]<br/>class = DoS>, fillcolor="#e9975b"] ;
703 -> 711 ;
712 [label=<Fwd IAT Total &le; 1122.5<br/>gini = 0.48<br/>samples = 10<br/>value = [6, 4, 0]<br/>class = DoS>, fillcolor="#f6d5bd"] ;
711 -> 712 ;
713 [label=<gini = 0.0<br/>samples = 3<br/>value = [3, 0, 0]<br/>class = DoS>, fillcolor="#e58139"] ;
712 -> 713 ;
714 [label=<Flow Duration &le; 1138.0<br/>gini = 0.49<br/>samples = 7<br/>value = [3, 4, 0]<br/>class = Scan>, fillcolor="#cef8e0"] ;
712 -> 714 ;
715 [label=<gini = 0.0<br/>samples = 2<br/>value = [0, 2, 0]<br/>class = Scan>, fillcolor="#39e581"] ;
714 -> 715 ;
716 [label=<Fwd IAT Max &le; 1243.5<br/>gini = 0.48<br/>samples = 5<br/>value = [3, 2, 0]<br/>class = DoS>, fillcolor="#f6d5bd"] ;
714 -> 716 ;
717 [label=<Flow IAT Min &le; 1157.5<br/>gini = 0.375<br/>samples = 4<br/>value = [3, 1, 0]<br/>class = DoS>, fillcolor="#eeab7b"] ;
716 -> 717 ;
718 [label=<Flow Packets/s &le; 1739.132<br/>gini = 0.5<br/>samples = 2<br/>value = [1, 1, 0]<br/>class = DoS>, fillcolor="#ffffff"] ;
717 -> 718 ;
719 [label=<gini = 0.0<br/>samples = 1<br/>value = [0, 1, 0]<br/>class = Scan>, fillcolor="#39e581"] ;
718 -> 719 ;
720 [label=<gini = 0.0<br/>samples = 1<br/>value = [1, 0, 0]<br/>class = DoS>, fillcolor="#e58139"] ;
718 -> 720 ;
721 [label=<gini = 0.0<br/>samples = 2<br/>value = [2, 0, 0]<br/>class = DoS>, fillcolor="#e58139"] ;
717 -> 721 ;
722 [label=<gini = 0.0<br/>samples = 1<br/>value = [0, 1, 0]<br/>class = Scan>, fillcolor="#39e581"] ;
716 -> 722 ;
723 [label=<Flow Packets/s &le; 1396.505<br/>gini = 0.08<br/>samples = 24<br/>value = [23, 1, 0]<br/>class = DoS>, fillcolor="#e68642"] ;
711 -> 723 ;
724 [label=<gini = 0.0<br/>samples = 15<br/>value = [15, 0, 0]<br/>class = DoS>, fillcolor="#e58139"] ;
723 -> 724 ;
725 [label=<Fwd IAT Total &le; 1391.0<br/>gini = 0.198<br/>samples = 9<br/>value = [8, 1, 0]<br/>class = DoS>, fillcolor="#e89152"] ;
723 -> 725 ;
726 [label=<gini = 0.0<br/>samples = 8<br/>value = [8, 0, 0]<br/>class = DoS>, fillcolor="#e58139"] ;
725 -> 726 ;
727 [label=<gini = 0.0<br/>samples = 1<br/>value = [0, 1, 0]<br/>class = Scan>, fillcolor="#39e581"] ;
725 -> 727 ;
728 [label=<Init_Win_bytes_forward &le; 269.0<br/>gini = 0.434<br/>samples = 22<br/>value = [15, 7, 0]<br/>class = DoS>, fillcolor="#f1bc95"] ;
702 -> 728 ;
729 [label=<Init_Win_bytes_forward &le; 246.5<br/>gini = 0.332<br/>samples = 19<br/>value = [15, 4, 0]<br/>class = DoS>, fillcolor="#eca36e"] ;
728 -> 729 ;
730 [label=<gini = 0.0<br/>samples = 9<br/>value = [9, 0, 0]<br/>class = DoS>, fillcolor="#e58139"] ;
729 -> 730 ;
731 [label=<Init_Win_bytes_forward &le; 257.5<br/>gini = 0.48<br/>samples = 10<br/>value = [6, 4, 0]<br/>class = DoS>, fillcolor="#f6d5bd"] ;
729 -> 731 ;
732 [label=<gini = 0.0<br/>samples = 4<br/>value = [0, 4, 0]<br/>class = Scan>, fillcolor="#39e581"] ;
731 -> 732 ;
733 [label=<gini = 0.0<br/>samples = 6<br/>value = [6, 0, 0]<br/>class = DoS>, fillcolor="#e58139"] ;
731 -> 733 ;
734 [label=<gini = 0.0<br/>samples = 3<br/>value = [0, 3, 0]<br/>class = Scan>, fillcolor="#39e581"] ;
728 -> 734 ;
735 [label=<gini = 0.0<br/>samples = 634<br/>value = [634, 0, 0]<br/>class = DoS>, fillcolor="#e58139"] ;
701 -> 735 ;
736 [label=<Init_Win_bytes_forward &le; 246.5<br/>gini = 0.444<br/>samples = 12<br/>value = [8, 4, 0]<br/>class = DoS>, fillcolor="#f2c09c"] ;
700 -> 736 ;
737 [label=<gini = 0.0<br/>samples = 4<br/>value = [4, 0, 0]<br/>class = DoS>, fillcolor="#e58139"] ;
736 -> 737 ;
738 [label=<Init_Win_bytes_forward &le; 257.5<br/>gini = 0.5<br/>samples = 8<br/>value = [4, 4, 0]<br/>class = DoS>, fillcolor="#ffffff"] ;
736 -> 738 ;
739 [label=<gini = 0.0<br/>samples = 3<br/>value = [0, 3, 0]<br/>class = Scan>, fillcolor="#39e581"] ;
738 -> 739 ;
740 [label=<Flow IAT Max &le; 1095.5<br/>gini = 0.32<br/>samples = 5<br/>value = [4, 1, 0]<br/>class = DoS>, fillcolor="#eca06a"] ;
738 -> 740 ;
741 [label=<gini = 0.0<br/>samples = 2<br/>value = [2, 0, 0]<br/>class = DoS>, fillcolor="#e58139"] ;
740 -> 741 ;
742 [label=<Fwd IAT Total &le; 1099.5<br/>gini = 0.444<br/>samples = 3<br/>value = [2, 1, 0]<br/>class = DoS>, fillcolor="#f2c09c"] ;
740 -> 742 ;
743 [label=<gini = 0.0<br/>samples = 1<br/>value = [0, 1, 0]<br/>class = Scan>, fillcolor="#39e581"] ;
742 -> 743 ;
744 [label=<gini = 0.0<br/>samples = 2<br/>value = [2, 0, 0]<br/>class = DoS>, fillcolor="#e58139"] ;
742 -> 744 ;
